<?xml version="1.0"?>
<opencv_storage>
<cascade>
  <stageType>BOOST</stageType>
  <featureType>HAAR</featureType>
  <height>24</height>
  <width>24</width>
  <stageParams>
    <boostType>GAB</boostType>
    <minHitRate>9.9500000476837158e-01</minHitRate>
    <maxFalseAlarm>5.0000000000000000e-01</maxFalseAlarm>
    <weightTrimRate>9.4999999999999996e-01</weightTrimRate>
    <maxDepth>1</maxDepth>
    <maxWeakCount>100</maxWeakCount></stageParams>
  <featureParams>
    <maxCatCount>0</maxCatCount>
    <featSize>1</featSize>
    <mode>BASIC</mode></featureParams>
  <stageNum>20</stageNum>
  <stages>
    <!-- stage 0 -->
    <_>
      <maxWeakCount>10</maxWeakCount>
      <stageThreshold>-1.1825479269027710e+00</stageThreshold>
      <weakClassifiers>
        <_>
          <internalNodes>
            0 -1 139 -7.9124763607978821e-02</internalNodes>
          <leafValues>
            7.8208231925964355e-01 -3.7404578924179077e-01</leafValues></_>
        <_>
          <internalNodes>
            0 -1 229 -4.4151174370199442e-04</internalNodes>
          <leafValues>
            -7.3165124654769897e-01 3.8189682364463806e-01</leafValues></_>
        <_>
          <internalNodes>
            0 -1 229 3.2422176445834339e-04</internalNodes>
          <leafValues>
            2.7545988559722900e-01 -7.1486288309097290e-01</leafValues></_>
        <_>
          <internalNodes>
            0 -1 191 4.7432057559490204e-02</internalNodes>
          <leafValues>
            -2.5548312067985535e-01 6.4669197797775269e-01</leafValues></_>
        <_>
          <internalNodes>
            0 -1 402 -5.4802838712930679e-04</internalNodes>
          <leafValues>
            -7.0305079221725464e-01 2.5896364450454712e-01</leafValues></_>
        <_>
          <internalNodes>
            0 -1 151 6.3627405324950814e-04</internalNodes>
          <leafValues>
            1.8905520439147949e-01 -7.1047210693359375e-01</leafValues></_>
        <_>
          <internalNodes>
            0 -1 395 -5.1488040480762720e-04</internalNodes>
          <leafValues>
            -6.9308948516845703e-01 1.2321948260068893e-01</leafValues></_>
        <_>
          <internalNodes>
            0 -1 392 2.1134089911356568e-04</internalNodes>
          <leafValues>
            2.5321072340011597e-01 -5.4060345888137817e-01</leafValues></_>
        <_>
          <internalNodes>
            0 -1 421 8.2189757376909256e-03</internalNodes>
          <leafValues>
            -2.6820513606071472e-01 5.2401304244995117e-01</leafValues></_>
        <_>
          <internalNodes>
            0 -1 323 2.5768637657165527e-02</internalNodes>
          <leafValues>
            -1.7659637331962585e-01 6.8510752916336060e-01</leafValues></_></weakClassifiers></_>
    <!-- stage 1 -->
    <_>
      <maxWeakCount>11</maxWeakCount>
      <stageThreshold>-7.2956073284149170e-01</stageThreshold>
      <weakClassifiers>
        <_>
          <internalNodes>
            0 -1 116 -1.4957600831985474e-01</internalNodes>
          <leafValues>
            7.7808988094329834e-01 -1.6300940513610840e-01</leafValues></_>
        <_>
          <internalNodes>
            0 -1 253 9.2295376816764474e-04</internalNodes>
          <leafValues>
            3.2220962643623352e-01 -6.9455587863922119e-01</leafValues></_>
        <_>
          <internalNodes>
            0 -1 254 -8.1243983004242182e-04</internalNodes>
          <leafValues>
            -7.8465670347213745e-01 2.2996374964714050e-01</leafValues></_>
        <_>
          <internalNodes>
            0 -1 145 -7.0059821009635925e-02</internalNodes>
          <leafValues>
            6.5593248605728149e-01 -2.5194078683853149e-01</leafValues></_>
        <_>
          <internalNodes>
            0 -1 132 -1.9138097763061523e-01</internalNodes>
          <leafValues>
            7.2840720415115356e-01 -2.1858850121498108e-01</leafValues></_>
        <_>
          <internalNodes>
            0 -1 373 -1.1801619548350573e-03</internalNodes>
          <leafValues>
            -7.7493524551391602e-01 1.9210174679756165e-01</leafValues></_>
        <_>
          <internalNodes>
            0 -1 374 3.3390289172530174e-04</internalNodes>
          <leafValues>
            2.1189169585704803e-01 -6.7433702945709229e-01</leafValues></_>
        <_>
          <internalNodes>
            0 -1 335 -1.0133792646229267e-02</internalNodes>
          <leafValues>
            6.1510920524597168e-01 -2.9046308994293213e-01</leafValues></_>
        <_>
          <internalNodes>
            0 -1 403 6.0581846628338099e-04</internalNodes>
          <leafValues>
            2.6475051045417786e-01 -5.2846658229827881e-01</leafValues></_>
        <_>
          <internalNodes>
            0 -1 192 -3.0063927173614502e-02</internalNodes>
          <leafValues>
            6.6326338052749634e-01 -1.9284488260746002e-01</leafValues></_>
        <_>
          <internalNodes>
            0 -1 273 8.7765406351536512e-04</internalNodes>
          <leafValues>
            2.0907184481620789e-01 -5.4286605119705200e-01</leafValues></_></weakClassifiers></_>
    <!-- stage 2 -->
    <_>
      <maxWeakCount>10</maxWeakCount>
      <stageThreshold>-7.2008609771728516e-01</stageThreshold>
      <weakClassifiers>
        <_>
          <internalNodes>
            0 -1 138 -1.6364218294620514e-01</internalNodes>
          <leafValues>
            7.3195874691009521e-01 -7.0044711232185364e-02</leafValues></_>
        <_>
          <internalNodes>
            0 -1 404 -5.0947966519743204e-04</internalNodes>
          <leafValues>
            -7.1494299173355103e-01 2.7369198203086853e-01</leafValues></_>
        <_>
          <internalNodes>
            0 -1 404 2.7632282581180334e-04</internalNodes>
          <leafValues>
            2.1687155961990356e-01 -6.9047015905380249e-01</leafValues></_>
        <_>
          <internalNodes>
            0 -1 445 -4.0983961662277579e-04</internalNodes>
          <leafValues>
            -5.7270127534866333e-01 2.1696330606937408e-01</leafValues></_>
        <_>
          <internalNodes>
            0 -1 130 5.2457395941019058e-04</internalNodes>
          <leafValues>
            1.6874019801616669e-01 -7.3062074184417725e-01</leafValues></_>
        <_>
          <internalNodes>
            0 -1 127 -4.2914121877402067e-04</internalNodes>
          <leafValues>
            -5.9073865413665771e-01 2.1718089282512665e-01</leafValues></_>
        <_>
          <internalNodes>
            0 -1 57 -1.3856330886483192e-02</internalNodes>
          <leafValues>
            4.2058533430099487e-01 -3.5100367665290833e-01</leafValues></_>
        <_>
          <internalNodes>
            0 -1 1 -3.4854980185627937e-04</internalNodes>
          <leafValues>
            -6.1272311210632324e-01 2.2339950501918793e-01</leafValues></_>
        <_>
          <internalNodes>
            0 -1 255 5.6021212367340922e-04</internalNodes>
          <leafValues>
            1.2065102159976959e-01 -7.6339370012283325e-01</leafValues></_>
        <_>
          <internalNodes>
            0 -1 397 -4.9800518900156021e-04</internalNodes>
          <leafValues>
            -6.2497633695602417e-01 1.6953535377979279e-01</leafValues></_></weakClassifiers></_>
    <!-- stage 3 -->
    <_>
      <maxWeakCount>16</maxWeakCount>
      <stageThreshold>-7.8984171152114868e-01</stageThreshold>
      <weakClassifiers>
        <_>
          <internalNodes>
            0 -1 387 7.6870704069733620e-03</internalNodes>
          <leafValues>
            -2.2529643774032593e-01 6.6824644804000854e-01</leafValues></_>
        <_>
          <internalNodes>
            0 -1 167 -2.1013337373733521e-01</internalNodes>
          <leafValues>
            6.8351256847381592e-01 -1.9331587851047516e-01</leafValues></_>
        <_>
          <internalNodes>
            0 -1 375 -6.5173953771591187e-04</internalNodes>
          <leafValues>
            -5.8667576313018799e-01 2.4040998518466949e-01</leafValues></_>
        <_>
          <internalNodes>
            0 -1 47 -2.0058955997228622e-02</internalNodes>
          <leafValues>
            4.9487861990928650e-01 -2.5267538428306580e-01</leafValues></_>
        <_>
          <internalNodes>
            0 -1 152 -6.4375053625553846e-04</internalNodes>
          <leafValues>
            -6.5078246593475342e-01 1.3868540525436401e-01</leafValues></_>
        <_>
          <internalNodes>
            0 -1 272 -3.9323867531493306e-04</internalNodes>
          <leafValues>
            -4.4839325547218323e-01 1.9037102162837982e-01</leafValues></_>
        <_>
          <internalNodes>
            0 -1 181 -1.2266265228390694e-02</internalNodes>
          <leafValues>
            4.4470316171646118e-01 -1.9417271018028259e-01</leafValues></_>
        <_>
          <internalNodes>
            0 -1 417 -7.0744594559073448e-03</internalNodes>
          <leafValues>
            4.4583293795585632e-01 -1.9821569323539734e-01</leafValues></_>
        <_>
          <internalNodes>
            0 -1 451 -2.2465080837719142e-04</internalNodes>
          <leafValues>
            -4.8974692821502686e-01 1.8675681948661804e-01</leafValues></_>
        <_>
          <internalNodes>
            0 -1 141 5.6497543118894100e-03</internalNodes>
          <leafValues>
            -2.0994171500205994e-01 4.8013582825660706e-01</leafValues></_>
        <_>
          <internalNodes>
            0 -1 220 -2.2293049842119217e-03</internalNodes>
          <leafValues>
            4.3422812223434448e-01 -2.0862716436386108e-01</leafValues></_>
        <_>
          <internalNodes>
            0 -1 290 -1.6755599528551102e-02</internalNodes>
          <leafValues>
            6.7419946193695068e-01 -1.1658664047718048e-01</leafValues></_>
        <_>
          <internalNodes>
            0 -1 198 -9.8963174968957901e-03</internalNodes>
          <leafValues>
            -7.4473923444747925e-01 1.3959494233131409e-01</leafValues></_>
        <_>
          <internalNodes>
            0 -1 256 -4.2098484933376312e-02</internalNodes>
          <leafValues>
            4.0767827630043030e-01 -2.2667825222015381e-01</leafValues></_>
        <_>
          <internalNodes>
            0 -1 99 1.1461008340120316e-02</internalNodes>
          <leafValues>
            -1.4314061403274536e-01 6.1228752136230469e-01</leafValues></_>
        <_>
          <internalNodes>
            0 -1 175 9.4455238431692123e-03</internalNodes>
          <leafValues>
            -9.6219591796398163e-02 7.0471578836441040e-01</leafValues></_></weakClassifiers></_>
    <!-- stage 4 -->
    <_>
      <maxWeakCount>15</maxWeakCount>
      <stageThreshold>-8.8258230686187744e-01</stageThreshold>
      <weakClassifiers>
        <_>
          <internalNodes>
            0 -1 331 3.3585858182050288e-04</internalNodes>
          <leafValues>
            4.8006930947303772e-01 -5.3061223030090332e-01</leafValues></_>
        <_>
          <internalNodes>
            0 -1 419 1.2041410431265831e-02</internalNodes>
          <leafValues>
            -3.7992796301841736e-01 3.7700107693672180e-01</leafValues></_>
        <_>
          <internalNodes>
            0 -1 331 -3.2592803472653031e-04</internalNodes>
          <leafValues>
            -5.9808808565139771e-01 2.7245658636093140e-01</leafValues></_>
        <_>
          <internalNodes>
            0 -1 51 3.0900968238711357e-02</internalNodes>
          <leafValues>
            1.2789833545684814e-01 -6.0994583368301392e-01</leafValues></_>
        <_>
          <internalNodes>
            0 -1 176 -5.0601334078237414e-04</internalNodes>
          <leafValues>
            -6.8557053804397583e-01 1.4273497462272644e-01</leafValues></_>
        <_>
          <internalNodes>
            0 -1 196 -3.3970869844779372e-04</internalNodes>
          <leafValues>
            -6.3657528162002563e-01 1.2648811936378479e-01</leafValues></_>
        <_>
          <internalNodes>
            0 -1 34 -2.4152945727109909e-02</internalNodes>
          <leafValues>
            5.9910070896148682e-01 -1.6448642313480377e-01</leafValues></_>
        <_>
          <internalNodes>
            0 -1 171 -1.0225630551576614e-01</internalNodes>
          <leafValues>
            5.0895988941192627e-01 -1.9274374842643738e-01</leafValues></_>
        <_>
          <internalNodes>
            0 -1 396 -4.7428006655536592e-04</internalNodes>
          <leafValues>
            -6.0922402143478394e-01 1.8565464019775391e-01</leafValues></_>
        <_>
          <internalNodes>
            0 -1 325 -4.9953111447393894e-03</internalNodes>
          <leafValues>
            4.4053611159324646e-01 -2.0553377270698547e-01</leafValues></_>
        <_>
          <internalNodes>
            0 -1 394 4.2742933146655560e-04</internalNodes>
          <leafValues>
            1.9441872835159302e-01 -4.8303967714309692e-01</leafValues></_>
        <_>
          <internalNodes>
            0 -1 85 -7.4071157723665237e-04</internalNodes>
          <leafValues>
            -7.5411230325698853e-01 5.9990212321281433e-02</leafValues></_>
        <_>
          <internalNodes>
            0 -1 337 3.8606924936175346e-03</internalNodes>
          <leafValues>
            -1.3086897134780884e-01 6.1231708526611328e-01</leafValues></_>
        <_>
          <internalNodes>
            0 -1 107 -7.5822335202246904e-04</internalNodes>
          <leafValues>
            -4.2057296633720398e-01 1.7079102993011475e-01</leafValues></_>
        <_>
          <internalNodes>
            0 -1 128 -1.6755613032728434e-03</internalNodes>
          <leafValues>
            -7.1649873256683350e-01 9.5899932086467743e-02</leafValues></_></weakClassifiers></_>
    <!-- stage 5 -->
    <_>
      <maxWeakCount>17</maxWeakCount>
      <stageThreshold>-7.1611291170120239e-01</stageThreshold>
      <weakClassifiers>
        <_>
          <internalNodes>
            0 -1 349 5.9996880590915680e-03</internalNodes>
          <leafValues>
            -1.9057816267013550e-01 6.1041903495788574e-01</leafValues></_>
        <_>
          <internalNodes>
            0 -1 439 2.3647399619221687e-02</internalNodes>
          <leafValues>
            -1.2934547662734985e-01 6.9342261552810669e-01</leafValues></_>
        <_>
          <internalNodes>
            0 -1 82 7.6136575080454350e-04</internalNodes>
          <leafValues>
            1.8828803300857544e-01 -5.6068170070648193e-01</leafValues></_>
        <_>
          <internalNodes>
            0 -1 60 -9.4422244001179934e-04</internalNodes>
          <leafValues>
            2.0328982174396515e-01 -4.6465808153152466e-01</leafValues></_>
        <_>
          <internalNodes>
            0 -1 452 4.7823111526668072e-04</internalNodes>
          <leafValues>
            1.2336061149835587e-01 -6.3459098339080811e-01</leafValues></_>
        <_>
          <internalNodes>
            0 -1 235 -4.9370937049388885e-03</internalNodes>
          <leafValues>
            4.7320288419723511e-01 -1.9732116162776947e-01</leafValues></_>
        <_>
          <internalNodes>
            0 -1 393 -5.4710893891751766e-04</internalNodes>
          <leafValues>
            -5.9984290599822998e-01 1.6519856452941895e-01</leafValues></_>
        <_>
          <internalNodes>
            0 -1 83 -2.1957966964691877e-04</internalNodes>
          <leafValues>
            -5.6657481193542480e-01 8.1273891031742096e-02</leafValues></_>
        <_>
          <internalNodes>
            0 -1 226 -1.9719496369361877e-02</internalNodes>
          <leafValues>
            4.6494761109352112e-01 -1.6316622495651245e-01</leafValues></_>
        <_>
          <internalNodes>
            0 -1 137 -8.2500120624899864e-03</internalNodes>
          <leafValues>
            1.9372689723968506e-01 -4.2958655953407288e-01</leafValues></_>
        <_>
          <internalNodes>
            0 -1 113 3.5100363194942474e-02</internalNodes>
          <leafValues>
            -1.5282164514064789e-01 5.6138026714324951e-01</leafValues></_>
        <_>
          <internalNodes>
            0 -1 429 -4.9407724873162806e-05</internalNodes>
          <leafValues>
            -3.2902488112449646e-01 2.3054604232311249e-01</leafValues></_>
        <_>
          <internalNodes>
            0 -1 243 6.3256518915295601e-03</internalNodes>
          <leafValues>
            -1.7524488270282745e-01 3.9669212698936462e-01</leafValues></_>
        <_>
          <internalNodes>
            0 -1 214 1.0964904213324189e-03</internalNodes>
          <leafValues>
            1.0890700668096542e-01 -7.7176040410995483e-01</leafValues></_>
        <_>
          <internalNodes>
            0 -1 66 -4.4248765334486961e-03</internalNodes>
          <leafValues>
            3.2157748937606812e-01 -2.3189456760883331e-01</leafValues></_>
        <_>
          <internalNodes>
            0 -1 324 -6.9268667139112949e-03</internalNodes>
          <leafValues>
            3.5175767540931702e-01 -1.9808515906333923e-01</leafValues></_>
        <_>
          <internalNodes>
            0 -1 394 4.9999071052297950e-04</internalNodes>
          <leafValues>
            1.3394674658775330e-01 -5.1595914363861084e-01</leafValues></_></weakClassifiers></_>
    <!-- stage 6 -->
    <_>
      <maxWeakCount>20</maxWeakCount>
      <stageThreshold>-8.9599895477294922e-01</stageThreshold>
      <weakClassifiers>
        <_>
          <internalNodes>
            0 -1 55 -5.3936028853058815e-03</internalNodes>
          <leafValues>
            5.6845563650131226e-01 -1.5789473056793213e-01</leafValues></_>
        <_>
          <internalNodes>
            0 -1 185 -1.8687339127063751e-01</internalNodes>
          <leafValues>
            6.3564282655715942e-01 -1.5123865008354187e-01</leafValues></_>
        <_>
          <internalNodes>
            0 -1 246 -5.0906613469123840e-02</internalNodes>
          <leafValues>
            6.0922211408615112e-01 -1.3158980011940002e-01</leafValues></_>
        <_>
          <internalNodes>
            0 -1 383 3.2416604459285736e-02</internalNodes>
          <leafValues>
            -2.0505276322364807e-01 4.0738213062286377e-01</leafValues></_>
        <_>
          <internalNodes>
            0 -1 377 1.3376846909523010e-03</internalNodes>
          <leafValues>
            1.7504829168319702e-01 -4.7018867731094360e-01</leafValues></_>
        <_>
          <internalNodes>
            0 -1 285 9.0476404875516891e-03</internalNodes>
          <leafValues>
            -1.6482160985469818e-01 5.8561408519744873e-01</leafValues></_>
        <_>
          <internalNodes>
            0 -1 452 -2.1679395285900682e-04</internalNodes>
          <leafValues>
            -5.0209039449691772e-01 1.7396080493927002e-01</leafValues></_>
        <_>
          <internalNodes>
            0 -1 282 -2.7104925829917192e-03</internalNodes>
          <leafValues>
            4.3930315971374512e-01 -1.9453860819339752e-01</leafValues></_>
        <_>
          <internalNodes>
            0 -1 210 7.8637758269906044e-03</internalNodes>
          <leafValues>
            -1.5044949948787689e-01 4.8537784814834595e-01</leafValues></_>
        <_>
          <internalNodes>
            0 -1 264 -6.1301261186599731e-02</internalNodes>
          <leafValues>
            3.9570763707160950e-01 -1.7997589707374573e-01</leafValues></_>
        <_>
          <internalNodes>
            0 -1 303 -9.9624320864677429e-03</internalNodes>
          <leafValues>
            4.8908415436744690e-01 -1.4173005521297455e-01</leafValues></_>
        <_>
          <internalNodes>
            0 -1 0 -1.1587138578761369e-04</internalNodes>
          <leafValues>
            -4.2398199439048767e-01 1.9385378062725067e-01</leafValues></_>
        <_>
          <internalNodes>
            0 -1 49 -2.5456966832280159e-03</internalNodes>
          <leafValues>
            4.5479485392570496e-01 -1.7944033443927765e-01</leafValues></_>
        <_>
          <internalNodes>
            0 -1 89 -9.6817174926400185e-04</internalNodes>
          <leafValues>
            -4.4589614868164062e-01 1.7726340889930725e-01</leafValues></_>
        <_>
          <internalNodes>
            0 -1 54 -1.4067322947084904e-02</internalNodes>
          <leafValues>
            5.6626808643341064e-01 -1.4947463572025299e-01</leafValues></_>
        <_>
          <internalNodes>
            0 -1 263 -7.0248916745185852e-03</internalNodes>
          <leafValues>
            5.2759677171707153e-01 -1.2249942123889923e-01</leafValues></_>
        <_>
          <internalNodes>
            0 -1 261 6.6809821873903275e-04</internalNodes>
          <leafValues>
            2.5421839952468872e-01 -2.7856934070587158e-01</leafValues></_>
        <_>
          <internalNodes>
            0 -1 414 2.8703214600682259e-02</internalNodes>
          <leafValues>
            -1.7434383928775787e-01 3.8597407937049866e-01</leafValues></_>
        <_>
          <internalNodes>
            0 -1 98 -1.4595690369606018e-01</internalNodes>
          <leafValues>
            -7.6516115665435791e-01 9.6270903944969177e-02</leafValues></_>
        <_>
          <internalNodes>
            0 -1 32 8.7269917130470276e-02</internalNodes>
          <leafValues>
            1.4500734210014343e-01 -5.1323771476745605e-01</leafValues></_></weakClassifiers></_>
    <!-- stage 7 -->
    <_>
      <maxWeakCount>24</maxWeakCount>
      <stageThreshold>-6.2513685226440430e-01</stageThreshold>
      <weakClassifiers>
        <_>
          <internalNodes>
            0 -1 389 2.7944222092628479e-03</internalNodes>
          <leafValues>
            -8.7272725999355316e-02 6.2250000238418579e-01</leafValues></_>
        <_>
          <internalNodes>
            0 -1 439 1.6037181019783020e-02</internalNodes>
          <leafValues>
            -1.6988825798034668e-01 4.8912295699119568e-01</leafValues></_>
        <_>
          <internalNodes>
            0 -1 38 -7.9219657927751541e-03</internalNodes>
          <leafValues>
            2.4421826004981995e-01 -3.8709595799446106e-01</leafValues></_>
        <_>
          <internalNodes>
            0 -1 464 2.6102326810359955e-03</internalNodes>
          <leafValues>
            1.4270353317260742e-01 -5.6337791681289673e-01</leafValues></_>
        <_>
          <internalNodes>
            0 -1 380 1.4225422637537122e-04</internalNodes>
          <leafValues>
            2.1239331364631653e-01 -3.6065718531608582e-01</leafValues></_>
        <_>
          <internalNodes>
            0 -1 228 -1.0235486552119255e-03</internalNodes>
          <leafValues>
            -7.6919013261795044e-01 4.6271212399005890e-02</leafValues></_>
        <_>
          <internalNodes>
            0 -1 71 -5.7505872100591660e-03</internalNodes>
          <leafValues>
            2.5743874907493591e-01 -2.6902204751968384e-01</leafValues></_>
        <_>
          <internalNodes>
            0 -1 228 6.6496647195890546e-04</internalNodes>
          <leafValues>
            1.0134252905845642e-01 -5.9721702337265015e-01</leafValues></_>
        <_>
          <internalNodes>
            0 -1 187 2.8250655159354210e-03</internalNodes>
          <leafValues>
            -1.3166484236717224e-01 4.7216296195983887e-01</leafValues></_>
        <_>
          <internalNodes>
            0 -1 364 -1.4391306322067976e-03</internalNodes>
          <leafValues>
            4.1859179735183716e-01 -1.3134734332561493e-01</leafValues></_>
        <_>
          <internalNodes>
            0 -1 374 -2.2494880249723792e-04</internalNodes>
          <leafValues>
            -4.7075039148330688e-01 1.1913068592548370e-01</leafValues></_>
        <_>
          <internalNodes>
            0 -1 101 -3.0322536826133728e-02</internalNodes>
          <leafValues>
            3.9759206771850586e-01 -1.5622028708457947e-01</leafValues></_>
        <_>
          <internalNodes>
            0 -1 10 -3.1441885232925415e-01</internalNodes>
          <leafValues>
            3.9544749259948730e-01 -1.2725138664245605e-01</leafValues></_>
        <_>
          <internalNodes>
            0 -1 353 1.3436874747276306e-01</internalNodes>
          <leafValues>
            -9.4348542392253876e-02 7.0604056119918823e-01</leafValues></_>
        <_>
          <internalNodes>
            0 -1 412 2.1009977906942368e-02</internalNodes>
          <leafValues>
            -1.5179984271526337e-01 3.2479491829872131e-01</leafValues></_>
        <_>
          <internalNodes>
            0 -1 427 2.1181581541895866e-03</internalNodes>
          <leafValues>
            7.3273330926895142e-02 -6.8641734123229980e-01</leafValues></_>
        <_>
          <internalNodes>
            0 -1 418 2.6143107563257217e-02</internalNodes>
          <leafValues>
            -9.2891007661819458e-02 7.5954151153564453e-01</leafValues></_>
        <_>
          <internalNodes>
            0 -1 436 -5.0075561739504337e-04</internalNodes>
          <leafValues>
            -5.8893036842346191e-01 1.1522234976291656e-01</leafValues></_>
        <_>
          <internalNodes>
            0 -1 75 -2.0719470921903849e-04</internalNodes>
          <leafValues>
            2.6614546775817871e-01 -2.1449296176433563e-01</leafValues></_>
        <_>
          <internalNodes>
            0 -1 18 -8.2207933068275452e-02</internalNodes>
          <leafValues>
            3.9714244008064270e-01 -1.3562002778053284e-01</leafValues></_>
        <_>
          <internalNodes>
            0 -1 169 5.2344128489494324e-03</internalNodes>
          <leafValues>
            -1.4316412806510925e-01 4.0038302540779114e-01</leafValues></_>
        <_>
          <internalNodes>
            0 -1 44 -1.6932271420955658e-02</internalNodes>
          <leafValues>
            4.2099830508232117e-01 -1.2757751345634460e-01</leafValues></_>
        <_>
          <internalNodes>
            0 -1 293 4.2356748599559069e-04</internalNodes>
          <leafValues>
            1.3395112752914429e-01 -4.6054971218109131e-01</leafValues></_>
        <_>
          <internalNodes>
            0 -1 25 4.6339710243046284e-03</internalNodes>
          <leafValues>
            -1.7056946456432343e-01 3.8341346383094788e-01</leafValues></_></weakClassifiers></_>
    <!-- stage 8 -->
    <_>
      <maxWeakCount>24</maxWeakCount>
      <stageThreshold>-8.3490753173828125e-01</stageThreshold>
      <weakClassifiers>
        <_>
          <internalNodes>
            0 -1 174 7.2418570518493652e-02</internalNodes>
          <leafValues>
            3.5422343760728836e-02 6.8831169605255127e-01</leafValues></_>
        <_>
          <internalNodes>
            0 -1 46 -1.2251848354935646e-02</internalNodes>
          <leafValues>
            5.4864054918289185e-01 -1.4184904098510742e-01</leafValues></_>
        <_>
          <internalNodes>
            0 -1 266 -8.2513801753520966e-03</internalNodes>
          <leafValues>
            2.7713546156883240e-01 -3.4400042891502380e-01</leafValues></_>
        <_>
          <internalNodes>
            0 -1 52 -7.4538782238960266e-02</internalNodes>
          <leafValues>
            -4.9297896027565002e-01 9.7684599459171295e-02</leafValues></_>
        <_>
          <internalNodes>
            0 -1 195 7.4699032120406628e-04</internalNodes>
          <leafValues>
            9.5658607780933380e-02 -5.8748471736907959e-01</leafValues></_>
        <_>
          <internalNodes>
            0 -1 189 2.1415436640381813e-03</internalNodes>
          <leafValues>
            -1.5667702257633209e-01 4.0609219670295715e-01</leafValues></_>
        <_>
          <internalNodes>
            0 -1 443 -1.9348156638443470e-04</internalNodes>
          <leafValues>
            -3.9007070660591125e-01 1.6094782948493958e-01</leafValues></_>
        <_>
          <internalNodes>
            0 -1 462 -1.0050104465335608e-03</internalNodes>
          <leafValues>
            -6.4665526151657104e-01 8.5880115628242493e-02</leafValues></_>
        <_>
          <internalNodes>
            0 -1 222 -7.5130425393581390e-03</internalNodes>
          <leafValues>
            5.5020481348037720e-01 -1.2239585816860199e-01</leafValues></_>
        <_>
          <internalNodes>
            0 -1 179 7.2750044637359679e-05</internalNodes>
          <leafValues>
            1.9316725432872772e-01 -3.3446496725082397e-01</leafValues></_>
        <_>
          <internalNodes>
            0 -1 269 -4.7515695914626122e-03</internalNodes>
          <leafValues>
            3.5320565104484558e-01 -1.8241846561431885e-01</leafValues></_>
        <_>
          <internalNodes>
            0 -1 107 -7.8599731205031276e-04</internalNodes>
          <leafValues>
            -5.0547248125076294e-01 1.2622770667076111e-01</leafValues></_>
        <_>
          <internalNodes>
            0 -1 328 7.8069069422781467e-04</internalNodes>
          <leafValues>
            -1.0665036737918854e-01 5.9194666147232056e-01</leafValues></_>
        <_>
          <internalNodes>
            0 -1 279 -4.0825437754392624e-03</internalNodes>
          <leafValues>
            4.3087157607078552e-01 -1.3431032001972198e-01</leafValues></_>
        <_>
          <internalNodes>
            0 -1 334 -7.4761696159839630e-03</internalNodes>
          <leafValues>
            8.2831817865371704e-01 -5.9249699115753174e-02</leafValues></_>
        <_>
          <internalNodes>
            0 -1 420 5.6064722593873739e-04</internalNodes>
          <leafValues>
            -1.3299757242202759e-01 4.0883642435073853e-01</leafValues></_>
        <_>
          <internalNodes>
            0 -1 203 9.6437800675630569e-03</internalNodes>
          <leafValues>
            -1.0009051114320755e-01 5.4812520742416382e-01</leafValues></_>
        <_>
          <internalNodes>
            0 -1 64 -3.0310824513435364e-03</internalNodes>
          <leafValues>
            2.4913722276687622e-01 -2.1698066592216492e-01</leafValues></_>
        <_>
          <internalNodes>
            0 -1 19 6.7521366872824728e-05</internalNodes>
          <leafValues>
            1.7116501927375793e-01 -3.2410442829132080e-01</leafValues></_>
        <_>
          <internalNodes>
            0 -1 39 -5.9282556176185608e-03</internalNodes>
          <leafValues>
            5.9359169006347656e-01 -9.9485658109188080e-02</leafValues></_>
        <_>
          <internalNodes>
            0 -1 80 -1.0511570144444704e-03</internalNodes>
          <leafValues>
            -6.8309146165847778e-01 7.9457327723503113e-02</leafValues></_>
        <_>
          <internalNodes>
            0 -1 213 -7.4229976162314415e-03</internalNodes>
          <leafValues>
            5.5598580837249756e-01 -1.0751447081565857e-01</leafValues></_>
        <_>
          <internalNodes>
            0 -1 87 -1.2408572947606444e-03</internalNodes>
          <leafValues>
            -4.6612614393234253e-01 1.3213178515434265e-01</leafValues></_>
        <_>
          <internalNodes>
            0 -1 201 -1.4223811216652393e-02</internalNodes>
          <leafValues>
            5.5337554216384888e-01 -1.0802999883890152e-01</leafValues></_></weakClassifiers></_>
    <!-- stage 9 -->
    <_>
      <maxWeakCount>25</maxWeakCount>
      <stageThreshold>-7.6678019762039185e-01</stageThreshold>
      <weakClassifiers>
        <_>
          <internalNodes>
            0 -1 48 -2.3050982505083084e-02</internalNodes>
          <leafValues>
            6.0398507118225098e-01 -6.3985377550125122e-02</leafValues></_>
        <_>
          <internalNodes>
            0 -1 142 -1.6003274917602539e-01</internalNodes>
          <leafValues>
            4.6755513548851013e-01 -1.5734748542308807e-01</leafValues></_>
        <_>
          <internalNodes>
            0 -1 277 -7.2966359555721283e-02</internalNodes>
          <leafValues>
            4.4928425550460815e-01 -1.5636183321475983e-01</leafValues></_>
        <_>
          <internalNodes>
            0 -1 166 -7.2874631732702255e-03</internalNodes>
          <leafValues>
            4.7142466902732849e-01 -1.3943168520927429e-01</leafValues></_>
        <_>
          <internalNodes>
            0 -1 315 -1.7376532778143883e-03</internalNodes>
          <leafValues>
            4.9139356613159180e-01 -1.2803806364536285e-01</leafValues></_>
        <_>
          <internalNodes>
            0 -1 186 -7.9304799437522888e-03</internalNodes>
          <leafValues>
            2.1664960682392120e-01 -3.0251336097717285e-01</leafValues></_>
        <_>
          <internalNodes>
            0 -1 444 1.0896596359089017e-04</internalNodes>
          <leafValues>
            1.3175106048583984e-01 -3.9402040839195251e-01</leafValues></_>
        <_>
          <internalNodes>
            0 -1 399 -7.7445637434720993e-03</internalNodes>
          <leafValues>
            4.8935753107070923e-01 -1.3674654066562653e-01</leafValues></_>
        <_>
          <internalNodes>
            0 -1 424 2.9190708883106709e-03</internalNodes>
          <leafValues>
            -2.0805706083774567e-01 2.8661516308784485e-01</leafValues></_>
        <_>
          <internalNodes>
            0 -1 416 -2.1799758076667786e-02</internalNodes>
          <leafValues>
            5.6456464529037476e-01 -1.2761522829532623e-01</leafValues></_>
        <_>
          <internalNodes>
            0 -1 155 -4.7477509360760450e-04</internalNodes>
          <leafValues>
            -5.4674237966537476e-01 1.4547878503799438e-01</leafValues></_>
        <_>
          <internalNodes>
            0 -1 104 -6.3580279238522053e-03</internalNodes>
          <leafValues>
            3.4925338625907898e-01 -1.8625651299953461e-01</leafValues></_>
        <_>
          <internalNodes>
            0 -1 345 -8.8463768362998962e-02</internalNodes>
          <leafValues>
            5.9306299686431885e-01 -1.1739625036716461e-01</leafValues></_>
        <_>
          <internalNodes>
            0 -1 400 5.7658781297504902e-03</internalNodes>
          <leafValues>
            -1.0939913988113403e-01 3.9196926355361938e-01</leafValues></_>
        <_>
          <internalNodes>
            0 -1 360 -1.0950804688036442e-02</internalNodes>
          <leafValues>
            2.6976802945137024e-01 -2.1428963541984558e-01</leafValues></_>
        <_>
          <internalNodes>
            0 -1 208 -3.9259716868400574e-02</internalNodes>
          <leafValues>
            4.4829690456390381e-01 -1.2805870175361633e-01</leafValues></_>
        <_>
          <internalNodes>
            0 -1 160 1.3009788468480110e-02</internalNodes>
          <leafValues>
            1.9286897778511047e-01 -3.0227318406105042e-01</leafValues></_>
        <_>
          <internalNodes>
            0 -1 317 3.4656152129173279e-02</internalNodes>
          <leafValues>
            -1.3691988587379456e-01 4.1476219892501831e-01</leafValues></_>
        <_>
          <internalNodes>
            0 -1 465 -2.2247566375881433e-03</internalNodes>
          <leafValues>
            -5.9482556581497192e-01 1.1081913113594055e-01</leafValues></_>
        <_>
          <internalNodes>
            0 -1 301 2.5401391088962555e-02</internalNodes>
          <leafValues>
            -7.6627604663372040e-02 8.3875823020935059e-01</leafValues></_>
        <_>
          <internalNodes>
            0 -1 5 -6.2763341702520847e-04</internalNodes>
          <leafValues>
            -3.1310519576072693e-01 1.7891557514667511e-01</leafValues></_>
        <_>
          <internalNodes>
            0 -1 381 6.3155865063890815e-04</internalNodes>
          <leafValues>
            -2.2460065782070160e-01 2.1910074353218079e-01</leafValues></_>
        <_>
          <internalNodes>
            0 -1 134 1.8781935796141624e-03</internalNodes>
          <leafValues>
            -1.1902795732021332e-01 4.0284499526023865e-01</leafValues></_>
        <_>
          <internalNodes>
            0 -1 172 4.5293938368558884e-02</internalNodes>
          <leafValues>
            7.2254456579685211e-02 -7.6639842987060547e-01</leafValues></_>
        <_>
          <internalNodes>
            0 -1 170 -5.6115444749593735e-03</internalNodes>
          <leafValues>
            6.0904979705810547e-01 -9.6403680741786957e-02</leafValues></_></weakClassifiers></_>
    <!-- stage 10 -->
    <_>
      <maxWeakCount>29</maxWeakCount>
      <stageThreshold>-7.5914722681045532e-01</stageThreshold>
      <weakClassifiers>
        <_>
          <internalNodes>
            0 -1 65 -1.2137712910771370e-03</internalNodes>
          <leafValues>
            4.9094375967979431e-01 -2.1594683825969696e-01</leafValues></_>
        <_>
          <internalNodes>
            0 -1 217 -6.8420179188251495e-02</internalNodes>
          <leafValues>
            5.2839970588684082e-01 -1.4161129295825958e-01</leafValues></_>
        <_>
          <internalNodes>
            0 -1 216 -2.3380125639960170e-04</internalNodes>
          <leafValues>
            -5.0864911079406738e-01 1.3747067749500275e-01</leafValues></_>
        <_>
          <internalNodes>
            0 -1 429 8.6071423720568419e-04</internalNodes>
          <leafValues>
            9.3157581984996796e-02 -5.8311730623245239e-01</leafValues></_>
        <_>
          <internalNodes>
            0 -1 21 -1.7188824713230133e-02</internalNodes>
          <leafValues>
            3.8460445404052734e-01 -1.6016024351119995e-01</leafValues></_>
        <_>
          <internalNodes>
            0 -1 108 1.1446615681052208e-03</internalNodes>
          <leafValues>
            8.6893931031227112e-02 -5.2611422538757324e-01</leafValues></_>
        <_>
          <internalNodes>
            0 -1 429 -1.3218196108937263e-03</internalNodes>
          <leafValues>
            -6.8060690164566040e-01 8.1505663692951202e-02</leafValues></_>
        <_>
          <internalNodes>
            0 -1 207 -5.0520575605332851e-03</internalNodes>
          <leafValues>
            2.2343607246875763e-01 -2.5625175237655640e-01</leafValues></_>
        <_>
          <internalNodes>
            0 -1 135 4.7085657715797424e-02</internalNodes>
          <leafValues>
            -1.2120634317398071e-01 4.8177945613861084e-01</leafValues></_>
        <_>
          <internalNodes>
            0 -1 426 -5.2843953017145395e-04</internalNodes>
          <leafValues>
            2.0003184676170349e-01 -2.7379330992698669e-01</leafValues></_>
        <_>
          <internalNodes>
            0 -1 153 6.8508938420563936e-04</internalNodes>
          <leafValues>
            5.5182192474603653e-02 -8.2067590951919556e-01</leafValues></_>
        <_>
          <internalNodes>
            0 -1 281 3.3892352133989334e-02</internalNodes>
          <leafValues>
            -1.3131260871887207e-01 4.6677598357200623e-01</leafValues></_>
        <_>
          <internalNodes>
            0 -1 58 -3.9877477101981640e-03</internalNodes>
          <leafValues>
            -5.0764936208724976e-01 1.0907302051782608e-01</leafValues></_>
        <_>
          <internalNodes>
            0 -1 284 -4.1232118383049965e-03</internalNodes>
          <leafValues>
            3.7286669015884399e-01 -1.4804510772228241e-01</leafValues></_>
        <_>
          <internalNodes>
            0 -1 350 2.0627044141292572e-03</internalNodes>
          <leafValues>
            1.0603979974985123e-01 -5.1179051399230957e-01</leafValues></_>
        <_>
          <internalNodes>
            0 -1 459 4.1181910783052444e-03</internalNodes>
          <leafValues>
            7.8801281750202179e-02 -5.7194823026657104e-01</leafValues></_>
        <_>
          <internalNodes>
            0 -1 276 -9.1958744451403618e-03</internalNodes>
          <leafValues>
            -7.0744693279266357e-01 5.3813021630048752e-02</leafValues></_>
        <_>
          <internalNodes>
            0 -1 124 -3.2290332019329071e-03</internalNodes>
          <leafValues>
            3.2179790735244751e-01 -1.5677563846111298e-01</leafValues></_>
        <_>
          <internalNodes>
            0 -1 227 2.5084740482270718e-03</internalNodes>
          <leafValues>
            -1.5433499217033386e-01 3.5833090543746948e-01</leafValues></_>
        <_>
          <internalNodes>
            0 -1 11 -6.3776387833058834e-05</internalNodes>
          <leafValues>
            -3.6718773841857910e-01 1.3177950680255890e-01</leafValues></_>
        <_>
          <internalNodes>
            0 -1 259 -1.0794727131724358e-02</internalNodes>
          <leafValues>
            5.4775005578994751e-01 -1.0279573500156403e-01</leafValues></_>
        <_>
          <internalNodes>
            0 -1 229 -9.7761105280369520e-04</internalNodes>
          <leafValues>
            -8.8517570495605469e-01 6.0348052531480789e-02</leafValues></_>
        <_>
          <internalNodes>
            0 -1 219 2.8070085681974888e-03</internalNodes>
          <leafValues>
            -1.6075754165649414e-01 2.8895261883735657e-01</leafValues></_>
        <_>
          <internalNodes>
            0 -1 356 -4.4138282537460327e-03</internalNodes>
          <leafValues>
            -5.0089961290359497e-01 1.0522811859846115e-01</leafValues></_>
        <_>
          <internalNodes>
            0 -1 408 3.1564325094223022e-02</internalNodes>
          <leafValues>
            -1.5955908596515656e-01 2.8228759765625000e-01</leafValues></_>
        <_>
          <internalNodes>
            0 -1 30 -2.9167611151933670e-02</internalNodes>
          <leafValues>
            5.3661507368087769e-01 -8.9633457362651825e-02</leafValues></_>
        <_>
          <internalNodes>
            0 -1 225 -8.2299846690148115e-04</internalNodes>
          <leafValues>
            3.5253083705902100e-01 -1.5217100083827972e-01</leafValues></_>
        <_>
          <internalNodes>
            0 -1 267 8.0229016020894051e-04</internalNodes>
          <leafValues>
            -1.6204425692558289e-01 3.1525009870529175e-01</leafValues></_>
        <_>
          <internalNodes>
            0 -1 92 -6.1968155205249786e-04</internalNodes>
          <leafValues>
            -3.7243011593818665e-01 1.5458376705646515e-01</leafValues></_></weakClassifiers></_>
    <!-- stage 11 -->
    <_>
      <maxWeakCount>32</maxWeakCount>
      <stageThreshold>-8.2534402608871460e-01</stageThreshold>
      <weakClassifiers>
        <_>
          <internalNodes>
            0 -1 24 -3.8716703653335571e-02</internalNodes>
          <leafValues>
            6.9258588552474976e-01 8.4065243601799011e-02</leafValues></_>
        <_>
          <internalNodes>
            0 -1 374 2.0122539717704058e-04</internalNodes>
          <leafValues>
            1.9140800833702087e-01 -4.9398064613342285e-01</leafValues></_>
        <_>
          <internalNodes>
            0 -1 415 2.0107224583625793e-02</internalNodes>
          <leafValues>
            -2.5342887639999390e-01 2.8017646074295044e-01</leafValues></_>
        <_>
          <internalNodes>
            0 -1 81 -9.3833135906606913e-04</internalNodes>
          <leafValues>
            -6.5754866600036621e-01 9.8248884081840515e-02</leafValues></_>
        <_>
          <internalNodes>
            0 -1 121 -4.1417732834815979e-02</internalNodes>
          <leafValues>
            3.1937769055366516e-01 -2.0372177660465240e-01</leafValues></_>
        <_>
          <internalNodes>
            0 -1 292 5.4253609851002693e-03</internalNodes>
          <leafValues>
            -1.8189758062362671e-01 4.5441499352455139e-01</leafValues></_>
        <_>
          <internalNodes>
            0 -1 312 -5.4651650134474039e-04</internalNodes>
          <leafValues>
            5.1265239715576172e-01 -1.2188751250505447e-01</leafValues></_>
        <_>
          <internalNodes>
            0 -1 164 4.0733400732278824e-02</internalNodes>
          <leafValues>
            -1.0221079736948013e-01 5.5651432275772095e-01</leafValues></_>
        <_>
          <internalNodes>
            0 -1 158 -6.8321406841278076e-02</internalNodes>
          <leafValues>
            7.0608258247375488e-01 -5.9195842593908310e-02</leafValues></_>
        <_>
          <internalNodes>
            0 -1 363 -8.7128141894936562e-03</internalNodes>
          <leafValues>
            2.1027475595474243e-01 -2.9320815205574036e-01</leafValues></_>
        <_>
          <internalNodes>
            0 -1 100 -4.3892925605177879e-03</internalNodes>
          <leafValues>
            4.3314501643180847e-01 -1.0913684219121933e-01</leafValues></_>
        <_>
          <internalNodes>
            0 -1 45 -1.0769938118755817e-02</internalNodes>
          <leafValues>
            7.0780354738235474e-01 -6.9859735667705536e-02</leafValues></_>
        <_>
          <internalNodes>
            0 -1 126 -4.3584182276390493e-04</internalNodes>
          <leafValues>
            -4.8686707019805908e-01 1.2284033745527267e-01</leafValues></_>
        <_>
          <internalNodes>
            0 -1 70 -1.3700097333639860e-03</internalNodes>
          <leafValues>
            -5.4661595821380615e-01 8.5709124803543091e-02</leafValues></_>
        <_>
          <internalNodes>
            0 -1 460 -1.2440253049135208e-02</internalNodes>
          <leafValues>
            -5.7069969177246094e-01 8.2017675042152405e-02</leafValues></_>
        <_>
          <internalNodes>
            0 -1 221 2.5451757013797760e-02</internalNodes>
          <leafValues>
            -8.1413179636001587e-02 6.5267586708068848e-01</leafValues></_>
        <_>
          <internalNodes>
            0 -1 443 -9.4070725026540458e-05</internalNodes>
          <leafValues>
            -3.1530824303627014e-01 1.5038977563381195e-01</leafValues></_>
        <_>
          <internalNodes>
            0 -1 289 4.2461836710572243e-03</internalNodes>
          <leafValues>
            -1.3661798834800720e-01 4.0825912356376648e-01</leafValues></_>
        <_>
          <internalNodes>
            0 -1 297 -6.2172510661184788e-04</internalNodes>
          <leafValues>
            3.0269229412078857e-01 -1.5731970965862274e-01</leafValues></_>
        <_>
          <internalNodes>
            0 -1 300 5.1459711976349354e-03</internalNodes>
          <leafValues>
            -1.8909552693367004e-01 2.6792469620704651e-01</leafValues></_>
        <_>
          <internalNodes>
            0 -1 374 -1.9924991647712886e-04</internalNodes>
          <leafValues>
            -4.6335348486900330e-01 1.0450307279825211e-01</leafValues></_>
        <_>
          <internalNodes>
            0 -1 299 -3.9079084992408752e-02</internalNodes>
          <leafValues>
            3.4474790096282959e-01 -1.3809390366077423e-01</leafValues></_>
        <_>
          <internalNodes>
            0 -1 309 -8.0616939812898636e-03</internalNodes>
          <leafValues>
            3.4461504220962524e-01 -1.3047355413436890e-01</leafValues></_>
        <_>
          <internalNodes>
            0 -1 306 8.7849274277687073e-02</internalNodes>
          <leafValues>
            -7.2423398494720459e-02 6.7947554588317871e-01</leafValues></_>
        <_>
          <internalNodes>
            0 -1 411 -2.0959977060556412e-02</internalNodes>
          <leafValues>
            3.6528688669204712e-01 -1.1561869829893112e-01</leafValues></_>
        <_>
          <internalNodes>
            0 -1 238 -2.1659582853317261e-03</internalNodes>
          <leafValues>
            4.6836987137794495e-01 -9.9903501570224762e-02</leafValues></_>
        <_>
          <internalNodes>
            0 -1 367 5.8924090117216110e-03</internalNodes>
          <leafValues>
            -1.2964288890361786e-01 3.6207276582717896e-01</leafValues></_>
        <_>
          <internalNodes>
            0 -1 236 -6.2744477763772011e-03</internalNodes>
          <leafValues>
            -6.5126252174377441e-01 8.1087723374366760e-02</leafValues></_>
        <_>
          <internalNodes>
            0 -1 248 -4.0378961712121964e-03</internalNodes>
          <leafValues>
            3.5177829861640930e-01 -1.5150812268257141e-01</leafValues></_>
        <_>
          <internalNodes>
            0 -1 332 -1.0390080511569977e-02</internalNodes>
          <leafValues>
            -6.3210368156433105e-01 8.4574848413467407e-02</leafValues></_>
        <_>
          <internalNodes>
            0 -1 178 1.0229751205770299e-04</internalNodes>
          <leafValues>
            2.0334415137767792e-01 -2.4476404488086700e-01</leafValues></_>
        <_>
          <internalNodes>
            0 -1 351 -4.0285696741193533e-04</internalNodes>
          <leafValues>
            -6.3551616668701172e-01 6.7640736699104309e-02</leafValues></_></weakClassifiers></_>
    <!-- stage 12 -->
    <_>
      <maxWeakCount>31</maxWeakCount>
      <stageThreshold>-7.4374532699584961e-01</stageThreshold>
      <weakClassifiers>
        <_>
          <internalNodes>
            0 -1 311 2.6741590350866318e-02</internalNodes>
          <leafValues>
            1.2797075323760509e-02 5.5168122053146362e-01</leafValues></_>
        <_>
          <internalNodes>
            0 -1 398 2.2388130892068148e-03</internalNodes>
          <leafValues>
            -1.7655932903289795e-01 3.7462767958641052e-01</leafValues></_>
        <_>
          <internalNodes>
            0 -1 72 -1.0200541000813246e-03</internalNodes>
          <leafValues>
            -6.8516218662261963e-01 9.2284388840198517e-02</leafValues></_>
        <_>
          <internalNodes>
            0 -1 63 -3.0187186785042286e-03</internalNodes>
          <leafValues>
            -5.8954572677612305e-01 9.2127732932567596e-02</leafValues></_>
        <_>
          <internalNodes>
            0 -1 105 -1.1522931978106499e-02</internalNodes>
          <leafValues>
            3.0953881144523621e-01 -1.8242777884006500e-01</leafValues></_>
        <_>
          <internalNodes>
            0 -1 95 -2.8619391378015280e-04</internalNodes>
          <leafValues>
            -4.5612102746963501e-01 1.2154061347246170e-01</leafValues></_>
        <_>
          <internalNodes>
            0 -1 307 -1.8930144608020782e-02</internalNodes>
          <leafValues>
            2.8058451414108276e-01 -2.3540331423282623e-01</leafValues></_>
        <_>
          <internalNodes>
            0 -1 347 4.0695467032492161e-03</internalNodes>
          <leafValues>
            -3.3848354220390320e-01 1.8594861030578613e-01</leafValues></_>
        <_>
          <internalNodes>
            0 -1 288 -4.3752696365118027e-03</internalNodes>
          <leafValues>
            3.8310360908508301e-01 -1.6885307431221008e-01</leafValues></_>
        <_>
          <internalNodes>
            0 -1 212 -3.3811163157224655e-03</internalNodes>
          <leafValues>
            -7.2928440570831299e-01 9.0094774961471558e-02</leafValues></_>
        <_>
          <internalNodes>
            0 -1 251 -8.3836819976568222e-03</internalNodes>
          <leafValues>
            5.5560070276260376e-01 -1.0429220646619797e-01</leafValues></_>
        <_>
          <internalNodes>
            0 -1 410 -3.8582384586334229e-03</internalNodes>
          <leafValues>
            2.7860921621322632e-01 -1.8654747307300568e-01</leafValues></_>
        <_>
          <internalNodes>
            0 -1 352 2.4705217219889164e-03</internalNodes>
          <leafValues>
            1.1872494220733643e-01 -4.0071707963943481e-01</leafValues></_>
        <_>
          <internalNodes>
            0 -1 146 -1.5781910624355078e-03</internalNodes>
          <leafValues>
            2.7150592207908630e-01 -1.8619132041931152e-01</leafValues></_>
        <_>
          <internalNodes>
            0 -1 379 8.0834142863750458e-05</internalNodes>
          <leafValues>
            1.8610478937625885e-01 -3.1135919690132141e-01</leafValues></_>
        <_>
          <internalNodes>
            0 -1 245 -2.9153600335121155e-03</internalNodes>
          <leafValues>
            2.4803291261196136e-01 -2.0250560343265533e-01</leafValues></_>
        <_>
          <internalNodes>
            0 -1 268 -3.4769356716424227e-03</internalNodes>
          <leafValues>
            4.2360463738441467e-01 -1.1638395488262177e-01</leafValues></_>
        <_>
          <internalNodes>
            0 -1 253 -5.2873179083690047e-04</internalNodes>
          <leafValues>
            -4.1147366166114807e-01 1.1644770205020905e-01</leafValues></_>
        <_>
          <internalNodes>
            0 -1 40 -2.2664945572614670e-03</internalNodes>
          <leafValues>
            3.8499987125396729e-01 -1.2980690598487854e-01</leafValues></_>
        <_>
          <internalNodes>
            0 -1 118 -7.2784218937158585e-03</internalNodes>
          <leafValues>
            2.3307883739471436e-01 -2.2118701040744781e-01</leafValues></_>
        <_>
          <internalNodes>
            0 -1 37 -1.0030840337276459e-01</internalNodes>
          <leafValues>
            -6.1428546905517578e-01 8.9377924799919128e-02</leafValues></_>
        <_>
          <internalNodes>
            0 -1 423 1.0447895620018244e-03</internalNodes>
          <leafValues>
            -1.7683018743991852e-01 3.0223286151885986e-01</leafValues></_>
        <_>
          <internalNodes>
            0 -1 102 3.5838480107486248e-03</internalNodes>
          <leafValues>
            6.6691517829895020e-02 -6.9584041833877563e-01</leafValues></_>
        <_>
          <internalNodes>
            0 -1 291 -6.6637913696467876e-03</internalNodes>
          <leafValues>
            6.8208581209182739e-01 -7.3209583759307861e-02</leafValues></_>
        <_>
          <internalNodes>
            0 -1 156 -3.9891403913497925e-01</internalNodes>
          <leafValues>
            5.6183207035064697e-01 -7.0948153734207153e-02</leafValues></_>
        <_>
          <internalNodes>
            0 -1 322 1.4963154681026936e-03</internalNodes>
          <leafValues>
            -1.8825840950012207e-01 2.7224954962730408e-01</leafValues></_>
        <_>
          <internalNodes>
            0 -1 366 -5.3630853071808815e-03</internalNodes>
          <leafValues>
            4.3069779872894287e-01 -9.5254592597484589e-02</leafValues></_>
        <_>
          <internalNodes>
            0 -1 111 2.2662509582005441e-04</internalNodes>
          <leafValues>
            1.5617634356021881e-01 -3.1878438591957092e-01</leafValues></_>
        <_>
          <internalNodes>
            0 -1 262 4.8173768445849419e-03</internalNodes>
          <leafValues>
            -8.2197986543178558e-02 6.0851335525512695e-01</leafValues></_>
        <_>
          <internalNodes>
            0 -1 143 -1.6176332719624043e-03</internalNodes>
          <leafValues>
            4.4502532482147217e-01 -9.6354536712169647e-02</leafValues></_>
        <_>
          <internalNodes>
            0 -1 84 5.0041457870975137e-04</internalNodes>
          <leafValues>
            8.9137360453605652e-02 -5.7419121265411377e-01</leafValues></_></weakClassifiers></_>
    <!-- stage 13 -->
    <_>
      <maxWeakCount>30</maxWeakCount>
      <stageThreshold>-6.5245825052261353e-01</stageThreshold>
      <weakClassifiers>
        <_>
          <internalNodes>
            0 -1 31 -1.9727537408471107e-02</internalNodes>
          <leafValues>
            7.0165747404098511e-01 8.5501857101917267e-02</leafValues></_>
        <_>
          <internalNodes>
            0 -1 180 -2.7883853763341904e-02</internalNodes>
          <leafValues>
            6.4425426721572876e-01 -7.9253219068050385e-02</leafValues></_>
        <_>
          <internalNodes>
            0 -1 308 -2.9453683644533157e-02</internalNodes>
          <leafValues>
            3.9888063073158264e-01 -1.7711919546127319e-01</leafValues></_>
        <_>
          <internalNodes>
            0 -1 114 5.4643922485411167e-03</internalNodes>
          <leafValues>
            -1.4596955478191376e-01 3.7336534261703491e-01</leafValues></_>
        <_>
          <internalNodes>
            0 -1 320 -2.6196891069412231e-01</internalNodes>
          <leafValues>
            5.4317963123321533e-01 -8.8137246668338776e-02</leafValues></_>
        <_>
          <internalNodes>
            0 -1 244 -5.7426700368523598e-03</internalNodes>
          <leafValues>
            2.0919281244277954e-01 -3.0946743488311768e-01</leafValues></_>
        <_>
          <internalNodes>
            0 -1 28 -6.1093857511878014e-03</internalNodes>
          <leafValues>
            -3.9025801420211792e-01 1.5292352437973022e-01</leafValues></_>
        <_>
          <internalNodes>
            0 -1 109 3.9188554510474205e-03</internalNodes>
          <leafValues>
            8.2046777009963989e-02 -6.5251654386520386e-01</leafValues></_>
        <_>
          <internalNodes>
            0 -1 218 -2.7388822287321091e-02</internalNodes>
          <leafValues>
            4.2443591356277466e-01 -1.3184124231338501e-01</leafValues></_>
        <_>
          <internalNodes>
            0 -1 78 3.0608722590841353e-04</internalNodes>
          <leafValues>
            -2.3843252658843994e-01 2.2768130898475647e-01</leafValues></_>
        <_>
          <internalNodes>
            0 -1 305 1.4861982781440020e-03</internalNodes>
          <leafValues>
            -1.1179002374410629e-01 4.0885809063911438e-01</leafValues></_>
        <_>
          <internalNodes>
            0 -1 431 -1.4622891321778297e-02</internalNodes>
          <leafValues>
            3.3932295441627502e-01 -1.6151735186576843e-01</leafValues></_>
        <_>
          <internalNodes>
            0 -1 68 8.6284875869750977e-03</internalNodes>
          <leafValues>
            -8.9710287749767303e-02 5.5055463314056396e-01</leafValues></_>
        <_>
          <internalNodes>
            0 -1 241 -1.1562864528968930e-03</internalNodes>
          <leafValues>
            3.5443857312202454e-01 -1.3138635456562042e-01</leafValues></_>
        <_>
          <internalNodes>
            0 -1 205 -2.3642084561288357e-03</internalNodes>
          <leafValues>
            3.4825304150581360e-01 -1.4704747498035431e-01</leafValues></_>
        <_>
          <internalNodes>
            0 -1 193 -4.1881263314280659e-05</internalNodes>
          <leafValues>
            -2.7353647351264954e-01 1.8275898694992065e-01</leafValues></_>
        <_>
          <internalNodes>
            0 -1 253 9.0043130330741405e-04</internalNodes>
          <leafValues>
            8.3574056625366211e-02 -5.5780988931655884e-01</leafValues></_>
        <_>
          <internalNodes>
            0 -1 461 6.6427187994122505e-03</internalNodes>
          <leafValues>
            7.6828867197036743e-02 -5.7355606555938721e-01</leafValues></_>
        <_>
          <internalNodes>
            0 -1 304 -2.8634510817937553e-04</internalNodes>
          <leafValues>
            2.8541019558906555e-01 -1.8259271979331970e-01</leafValues></_>
        <_>
          <internalNodes>
            0 -1 119 -5.7169161736965179e-03</internalNodes>
          <leafValues>
            1.5428231656551361e-01 -3.2866433262825012e-01</leafValues></_>
        <_>
          <internalNodes>
            0 -1 154 4.6504574129357934e-05</internalNodes>
          <leafValues>
            1.6821292042732239e-01 -2.8865954279899597e-01</leafValues></_>
        <_>
          <internalNodes>
            0 -1 274 -1.0698300786316395e-02</internalNodes>
          <leafValues>
            5.6232434511184692e-01 -9.3948848545551300e-02</leafValues></_>
        <_>
          <internalNodes>
            0 -1 184 2.9628123156726360e-03</internalNodes>
          <leafValues>
            -9.5785446465015411e-02 4.7000095248222351e-01</leafValues></_>
        <_>
          <internalNodes>
            0 -1 88 -4.3078980525024235e-05</internalNodes>
          <leafValues>
            -3.5761594772338867e-01 1.5144741535186768e-01</leafValues></_>
        <_>
          <internalNodes>
            0 -1 26 4.2569539800751954e-05</internalNodes>
          <leafValues>
            1.6594803333282471e-01 -2.9080745577812195e-01</leafValues></_>
        <_>
          <internalNodes>
            0 -1 384 4.8536609392613173e-04</internalNodes>
          <leafValues>
            -1.7350924015045166e-01 2.7830153703689575e-01</leafValues></_>
        <_>
          <internalNodes>
            0 -1 376 -3.2795455772429705e-03</internalNodes>
          <leafValues>
            -7.7324587106704712e-01 6.6488943994045258e-02</leafValues></_>
        <_>
          <internalNodes>
            0 -1 173 -6.5596762578934431e-04</internalNodes>
          <leafValues>
            2.5696989893913269e-01 -2.0481117069721222e-01</leafValues></_>
        <_>
          <internalNodes>
            0 -1 91 -1.8635671585798264e-02</internalNodes>
          <leafValues>
            2.4710804224014282e-01 -1.8714667856693268e-01</leafValues></_>
        <_>
          <internalNodes>
            0 -1 97 9.9041257053613663e-03</internalNodes>
          <leafValues>
            -9.9037654697895050e-02 4.6211525797843933e-01</leafValues></_></weakClassifiers></_>
    <!-- stage 14 -->
    <_>
      <maxWeakCount>32</maxWeakCount>
      <stageThreshold>-5.3639686107635498e-01</stageThreshold>
      <weakClassifiers>
        <_>
          <internalNodes>
            0 -1 413 3.7404060363769531e-02</internalNodes>
          <leafValues>
            8.8471852242946625e-02 6.3576161861419678e-01</leafValues></_>
        <_>
          <internalNodes>
            0 -1 442 4.4178599637234583e-05</internalNodes>
          <leafValues>
            2.2470287978649139e-01 -2.8439116477966309e-01</leafValues></_>
        <_>
          <internalNodes>
            0 -1 53 -8.8621955364942551e-03</internalNodes>
          <leafValues>
            3.2363530993461609e-01 -1.7567548155784607e-01</leafValues></_>
        <_>
          <internalNodes>
            0 -1 197 1.3244643341749907e-03</internalNodes>
          <leafValues>
            1.4281862974166870e-01 -3.6433985829353333e-01</leafValues></_>
        <_>
          <internalNodes>
            0 -1 457 1.0234187357127666e-03</internalNodes>
          <leafValues>
            6.4467504620552063e-02 -6.7521756887435913e-01</leafValues></_>
        <_>
          <internalNodes>
            0 -1 16 -5.1059881225228310e-03</internalNodes>
          <leafValues>
            -6.6817718744277954e-01 5.1535956561565399e-02</leafValues></_>
        <_>
          <internalNodes>
            0 -1 362 -5.3748656064271927e-03</internalNodes>
          <leafValues>
            -5.0130784511566162e-01 6.6772244870662689e-02</leafValues></_>
        <_>
          <internalNodes>
            0 -1 359 -1.1200720444321632e-02</internalNodes>
          <leafValues>
            1.7254020273685455e-01 -2.7948501706123352e-01</leafValues></_>
        <_>
          <internalNodes>
            0 -1 383 4.5819014310836792e-02</internalNodes>
          <leafValues>
            -8.1478610634803772e-02 3.7852749228477478e-01</leafValues></_>
        <_>
          <internalNodes>
            0 -1 438 -1.0845060460269451e-03</internalNodes>
          <leafValues>
            2.5971204042434692e-01 -1.9508026540279388e-01</leafValues></_>
        <_>
          <internalNodes>
            0 -1 370 -7.7087205136194825e-04</internalNodes>
          <leafValues>
            -4.5484456419944763e-01 9.5238558948040009e-02</leafValues></_>
        <_>
          <internalNodes>
            0 -1 287 -1.8015990499407053e-03</internalNodes>
          <leafValues>
            2.7639120817184448e-01 -1.4789347350597382e-01</leafValues></_>
        <_>
          <internalNodes>
            0 -1 242 1.2391576543450356e-02</internalNodes>
          <leafValues>
            -5.3257025778293610e-02 6.7411619424819946e-01</leafValues></_>
        <_>
          <internalNodes>
            0 -1 278 -6.5997079014778137e-02</internalNodes>
          <leafValues>
            2.9117280244827271e-01 -1.5166422724723816e-01</leafValues></_>
        <_>
          <internalNodes>
            0 -1 280 2.0488249137997627e-03</internalNodes>
          <leafValues>
            -2.1953752636909485e-01 2.2198042273521423e-01</leafValues></_>
        <_>
          <internalNodes>
            0 -1 206 1.5846631140448153e-04</internalNodes>
          <leafValues>
            2.3757208883762360e-01 -1.8915304541587830e-01</leafValues></_>
        <_>
          <internalNodes>
            0 -1 314 -1.6768451314419508e-03</internalNodes>
          <leafValues>
            4.7965106368064880e-01 -1.0351140797138214e-01</leafValues></_>
        <_>
          <internalNodes>
            0 -1 357 1.4231589157134295e-03</internalNodes>
          <leafValues>
            -1.7295692861080170e-01 2.5493615865707397e-01</leafValues></_>
        <_>
          <internalNodes>
            0 -1 441 8.1574718933552504e-04</internalNodes>
          <leafValues>
            6.5757371485233307e-02 -6.9494438171386719e-01</leafValues></_>
        <_>
          <internalNodes>
            0 -1 150 -4.2635658755898476e-03</internalNodes>
          <leafValues>
            3.9427441358566284e-01 -1.1542175710201263e-01</leafValues></_>
        <_>
          <internalNodes>
            0 -1 390 -2.7987714856863022e-03</internalNodes>
          <leafValues>
            1.8349342048168182e-01 -3.2398679852485657e-01</leafValues></_>
        <_>
          <internalNodes>
            0 -1 258 8.0758482217788696e-03</internalNodes>
          <leafValues>
            -8.0569028854370117e-02 5.6312704086303711e-01</leafValues></_>
        <_>
          <internalNodes>
            0 -1 33 -8.5000358521938324e-03</internalNodes>
          <leafValues>
            4.4824543595314026e-01 -8.8456809520721436e-02</leafValues></_>
        <_>
          <internalNodes>
            0 -1 73 -7.8594742808490992e-04</internalNodes>
          <leafValues>
            -7.4041825532913208e-01 6.3792183995246887e-02</leafValues></_>
        <_>
          <internalNodes>
            0 -1 316 3.7204134277999401e-03</internalNodes>
          <leafValues>
            9.0193584561347961e-02 -4.4421485066413879e-01</leafValues></_>
        <_>
          <internalNodes>
            0 -1 125 -5.3215739171719179e-05</internalNodes>
          <leafValues>
            -2.9511880874633789e-01 1.4072781801223755e-01</leafValues></_>
        <_>
          <internalNodes>
            0 -1 343 -2.0667728967964649e-03</internalNodes>
          <leafValues>
            2.5601041316986084e-01 -1.7149320244789124e-01</leafValues></_>
        <_>
          <internalNodes>
            0 -1 385 4.4741588644683361e-03</internalNodes>
          <leafValues>
            -1.2046126276254654e-01 3.4005594253540039e-01</leafValues></_>
        <_>
          <internalNodes>
            0 -1 365 -5.4686767980456352e-03</internalNodes>
          <leafValues>
            2.4196921288967133e-01 -2.0896716415882111e-01</leafValues></_>
        <_>
          <internalNodes>
            0 -1 454 1.0474622249603271e-03</internalNodes>
          <leafValues>
            1.9941999018192291e-01 -2.3593834042549133e-01</leafValues></_>
        <_>
          <internalNodes>
            0 -1 449 2.0501129329204559e-03</internalNodes>
          <leafValues>
            -1.0125694423913956e-01 4.7209668159484863e-01</leafValues></_>
        <_>
          <internalNodes>
            0 -1 333 -5.8202636428177357e-03</internalNodes>
          <leafValues>
            3.1312415003776550e-01 -1.5613147616386414e-01</leafValues></_></weakClassifiers></_>
    <!-- stage 15 -->
    <_>
      <maxWeakCount>31</maxWeakCount>
      <stageThreshold>-6.5850353240966797e-01</stageThreshold>
      <weakClassifiers>
        <_>
          <internalNodes>
            0 -1 17 -2.8077267110347748e-02</internalNodes>
          <leafValues>
            6.3703703880310059e-01 1.3086420297622681e-01</leafValues></_>
        <_>
          <internalNodes>
            0 -1 440 -1.7829863645602018e-04</internalNodes>
          <leafValues>
            -4.3712022900581360e-01 1.8637654185295105e-01</leafValues></_>
        <_>
          <internalNodes>
            0 -1 183 -3.0293496325612068e-02</internalNodes>
          <leafValues>
            2.8110986948013306e-01 -2.2410875558853149e-01</leafValues></_>
        <_>
          <internalNodes>
            0 -1 117 -1.4511492336168885e-03</internalNodes>
          <leafValues>
            2.9096749424934387e-01 -1.8442720174789429e-01</leafValues></_>
        <_>
          <internalNodes>
            0 -1 79 -3.3888079226016998e-02</internalNodes>
          <leafValues>
            -4.5434042811393738e-01 9.6894823014736176e-02</leafValues></_>
        <_>
          <internalNodes>
            0 -1 59 -3.1832018867135048e-03</internalNodes>
          <leafValues>
            -4.1958799958229065e-01 1.1452324688434601e-01</leafValues></_>
        <_>
          <internalNodes>
            0 -1 63 3.1921942718327045e-03</internalNodes>
          <leafValues>
            8.4638349711894989e-02 -5.1421654224395752e-01</leafValues></_>
        <_>
          <internalNodes>
            0 -1 202 -5.8613480068743229e-03</internalNodes>
          <leafValues>
            2.8473645448684692e-01 -1.8191799521446228e-01</leafValues></_>
        <_>
          <internalNodes>
            0 -1 340 6.2785460613667965e-03</internalNodes>
          <leafValues>
            -1.7759498953819275e-01 2.7043679356575012e-01</leafValues></_>
        <_>
          <internalNodes>
            0 -1 342 -1.0577797889709473e-02</internalNodes>
          <leafValues>
            3.8474053144454956e-01 -1.1106147617101669e-01</leafValues></_>
        <_>
          <internalNodes>
            0 -1 437 -4.5231900003273040e-05</internalNodes>
          <leafValues>
            -3.0817106366157532e-01 1.8053932487964630e-01</leafValues></_>
        <_>
          <internalNodes>
            0 -1 136 1.4340560883283615e-02</internalNodes>
          <leafValues>
            2.9390770941972733e-02 -7.7201837301254272e-01</leafValues></_>
        <_>
          <internalNodes>
            0 -1 168 -1.3609748333692551e-02</internalNodes>
          <leafValues>
            3.1342825293540955e-01 -1.3714538514614105e-01</leafValues></_>
        <_>
          <internalNodes>
            0 -1 103 -1.1782720685005188e-02</internalNodes>
          <leafValues>
            3.5658970475196838e-01 -1.1982329934835434e-01</leafValues></_>
        <_>
          <internalNodes>
            0 -1 407 2.9615614563226700e-02</internalNodes>
          <leafValues>
            -1.6303181648254395e-01 3.2041707634925842e-01</leafValues></_>
        <_>
          <internalNodes>
            0 -1 250 -6.7682201042771339e-03</internalNodes>
          <leafValues>
            6.6121411323547363e-01 -6.7890740931034088e-02</leafValues></_>
        <_>
          <internalNodes>
            0 -1 4 -8.2978059072047472e-04</internalNodes>
          <leafValues>
            -2.9051655530929565e-01 1.5212661027908325e-01</leafValues></_>
        <_>
          <internalNodes>
            0 -1 401 -3.6714351736009121e-03</internalNodes>
          <leafValues>
            -6.5458214282989502e-01 5.6926526129245758e-02</leafValues></_>
        <_>
          <internalNodes>
            0 -1 302 -1.3653278350830078e-02</internalNodes>
          <leafValues>
            -9.4443148374557495e-01 3.1661584973335266e-02</leafValues></_>
        <_>
          <internalNodes>
            0 -1 123 5.7720122858881950e-03</internalNodes>
          <leafValues>
            4.3131459504365921e-02 -7.1802866458892822e-01</leafValues></_>
        <_>
          <internalNodes>
            0 -1 12 4.7086901962757111e-02</internalNodes>
          <leafValues>
            -7.8741379082202911e-02 5.2941220998764038e-01</leafValues></_>
        <_>
          <internalNodes>
            0 -1 86 -4.7637670650146902e-04</internalNodes>
          <leafValues>
            -4.9546909332275391e-01 9.6459299325942993e-02</leafValues></_>
        <_>
          <internalNodes>
            0 -1 67 -3.1230323947966099e-03</internalNodes>
          <leafValues>
            2.0113430917263031e-01 -2.4132566154003143e-01</leafValues></_>
        <_>
          <internalNodes>
            0 -1 15 8.7625393643975258e-04</internalNodes>
          <leafValues>
            -1.5532442927360535e-01 2.7783611416816711e-01</leafValues></_>
        <_>
          <internalNodes>
            0 -1 9 9.2176587713765912e-06</internalNodes>
          <leafValues>
            2.2795368731021881e-01 -2.1898894011974335e-01</leafValues></_>
        <_>
          <internalNodes>
            0 -1 131 -3.5655489191412926e-03</internalNodes>
          <leafValues>
            -7.1171140670776367e-01 5.6187294423580170e-02</leafValues></_>
        <_>
          <internalNodes>
            0 -1 321 3.2142347190529108e-03</internalNodes>
          <leafValues>
            -1.5478940308094025e-01 2.8702902793884277e-01</leafValues></_>
        <_>
          <internalNodes>
            0 -1 348 -4.4881645590066910e-03</internalNodes>
          <leafValues>
            2.4085126817226410e-01 -1.7738725244998932e-01</leafValues></_>
        <_>
          <internalNodes>
            0 -1 329 7.4613161385059357e-02</internalNodes>
          <leafValues>
            -1.1224789172410965e-01 4.1640263795852661e-01</leafValues></_>
        <_>
          <internalNodes>
            0 -1 371 -8.2355429185554385e-04</internalNodes>
          <leafValues>
            2.2086286544799805e-01 -2.1074418723583221e-01</leafValues></_>
        <_>
          <internalNodes>
            0 -1 147 1.4303843490779400e-03</internalNodes>
          <leafValues>
            -1.4573225378990173e-01 3.1069836020469666e-01</leafValues></_></weakClassifiers></_>
    <!-- stage 16 -->
    <_>
      <maxWeakCount>33</maxWeakCount>
      <stageThreshold>-6.0895568132400513e-01</stageThreshold>
      <weakClassifiers>
        <_>
          <internalNodes>
            0 -1 209 1.7533942591398954e-03</internalNodes>
          <leafValues>
            -3.9823010563850403e-02 5.2115815877914429e-01</leafValues></_>
        <_>
          <internalNodes>
            0 -1 318 3.8477350026369095e-02</internalNodes>
          <leafValues>
            -1.7983242869377136e-01 3.8700509071350098e-01</leafValues></_>
        <_>
          <internalNodes>
            0 -1 177 2.1702975500375032e-03</internalNodes>
          <leafValues>
            1.2232928723096848e-01 -6.0788643360137939e-01</leafValues></_>
        <_>
          <internalNodes>
            0 -1 463 -4.4135600328445435e-03</internalNodes>
          <leafValues>
            -7.1525192260742188e-01 5.1444973796606064e-02</leafValues></_>
        <_>
          <internalNodes>
            0 -1 409 -9.0372636914253235e-03</internalNodes>
          <leafValues>
            2.4568565189838409e-01 -1.7869722843170166e-01</leafValues></_>
        <_>
          <internalNodes>
            0 -1 14 1.3226416194811463e-04</internalNodes>
          <leafValues>
            1.3545897603034973e-01 -3.1983408331871033e-01</leafValues></_>
        <_>
          <internalNodes>
            0 -1 234 1.4381095534190536e-03</internalNodes>
          <leafValues>
            -1.2970167398452759e-01 3.3864203095436096e-01</leafValues></_>
        <_>
          <internalNodes>
            0 -1 162 -9.7019206732511520e-03</internalNodes>
          <leafValues>
            3.9696958661079407e-01 -1.3162946701049805e-01</leafValues></_>
        <_>
          <internalNodes>
            0 -1 344 -8.0217421054840088e-02</internalNodes>
          <leafValues>
            4.2318055033683777e-01 -1.3075365126132965e-01</leafValues></_>
        <_>
          <internalNodes>
            0 -1 447 -5.3394911810755730e-03</internalNodes>
          <leafValues>
            4.4882497191429138e-01 -9.4395563006401062e-02</leafValues></_>
        <_>
          <internalNodes>
            0 -1 369 2.0886478014290333e-03</internalNodes>
          <leafValues>
            -1.7177173495292664e-01 3.2201969623565674e-01</leafValues></_>
        <_>
          <internalNodes>
            0 -1 163 -1.3176545500755310e-02</internalNodes>
          <leafValues>
            -7.9145395755767822e-01 7.6912045478820801e-02</leafValues></_>
        <_>
          <internalNodes>
            0 -1 249 -2.1122323814779520e-03</internalNodes>
          <leafValues>
            5.1558786630630493e-01 -1.0430341958999634e-01</leafValues></_>
        <_>
          <internalNodes>
            0 -1 450 1.0044556111097336e-03</internalNodes>
          <leafValues>
            1.0126131772994995e-01 -5.9776026010513306e-01</leafValues></_>
        <_>
          <internalNodes>
            0 -1 298 -1.4400739222764969e-02</internalNodes>
          <leafValues>
            2.8596460819244385e-01 -1.6865210235118866e-01</leafValues></_>
        <_>
          <internalNodes>
            0 -1 295 -4.7617591917514801e-05</internalNodes>
          <leafValues>
            -2.4423612654209137e-01 1.9810600578784943e-01</leafValues></_>
        <_>
          <internalNodes>
            0 -1 199 -2.7454905211925507e-02</internalNodes>
          <leafValues>
            4.2073047161102295e-01 -1.1520439386367798e-01</leafValues></_>
        <_>
          <internalNodes>
            0 -1 294 6.5359044820070267e-03</internalNodes>
          <leafValues>
            -1.3516947627067566e-01 3.1967344880104065e-01</leafValues></_>
        <_>
          <internalNodes>
            0 -1 372 1.1619648430496454e-03</internalNodes>
          <leafValues>
            7.5696639716625214e-02 -5.6979882717132568e-01</leafValues></_>
        <_>
          <internalNodes>
            0 -1 283 1.6579306684434414e-03</internalNodes>
          <leafValues>
            -1.2860684096813202e-01 3.7394282221794128e-01</leafValues></_>
        <_>
          <internalNodes>
            0 -1 230 6.2403492629528046e-03</internalNodes>
          <leafValues>
            9.8614454269409180e-02 -4.8765975236892700e-01</leafValues></_>
        <_>
          <internalNodes>
            0 -1 326 3.2796149607747793e-03</internalNodes>
          <leafValues>
            -1.4604957401752472e-01 3.1026169657707214e-01</leafValues></_>
        <_>
          <internalNodes>
            0 -1 224 2.1230014972388744e-03</internalNodes>
          <leafValues>
            -1.0192443430423737e-01 4.2550748586654663e-01</leafValues></_>
        <_>
          <internalNodes>
            0 -1 430 -2.3961879196576774e-04</internalNodes>
          <leafValues>
            -3.8514095544815063e-01 1.3052061200141907e-01</leafValues></_>
        <_>
          <internalNodes>
            0 -1 260 9.6614900976419449e-03</internalNodes>
          <leafValues>
            6.5053097903728485e-02 -7.5338047742843628e-01</leafValues></_>
        <_>
          <internalNodes>
            0 -1 148 1.1789599666371942e-03</internalNodes>
          <leafValues>
            -1.8667246401309967e-01 2.5419372320175171e-01</leafValues></_>
        <_>
          <internalNodes>
            0 -1 159 -1.9420366734266281e-03</internalNodes>
          <leafValues>
            -7.9684287309646606e-01 6.2841534614562988e-02</leafValues></_>
        <_>
          <internalNodes>
            0 -1 223 9.0631772764027119e-04</internalNodes>
          <leafValues>
            -1.4079497754573822e-01 3.2952046394348145e-01</leafValues></_>
        <_>
          <internalNodes>
            0 -1 112 -6.5958738327026367e-02</internalNodes>
          <leafValues>
            2.5880667567253113e-01 -1.7070873081684113e-01</leafValues></_>
        <_>
          <internalNodes>
            0 -1 386 -6.0149040073156357e-03</internalNodes>
          <leafValues>
            5.4802334308624268e-01 -9.1372966766357422e-02</leafValues></_>
        <_>
          <internalNodes>
            0 -1 455 -4.1109295561909676e-03</internalNodes>
          <leafValues>
            -6.8846112489700317e-01 6.8786107003688812e-02</leafValues></_>
        <_>
          <internalNodes>
            0 -1 433 2.5809006765484810e-03</internalNodes>
          <leafValues>
            5.2462905645370483e-02 -6.6644501686096191e-01</leafValues></_>
        <_>
          <internalNodes>
            0 -1 358 1.5138320159167051e-03</internalNodes>
          <leafValues>
            -1.0677913576364517e-01 4.0767404437065125e-01</leafValues></_></weakClassifiers></_>
    <!-- stage 17 -->
    <_>
      <maxWeakCount>32</maxWeakCount>
      <stageThreshold>-5.5913811922073364e-01</stageThreshold>
      <weakClassifiers>
        <_>
          <internalNodes>
            0 -1 3 -4.6110166294965893e-05</internalNodes>
          <leafValues>
            -1.1185682378709316e-02 5.0387597084045410e-01</leafValues></_>
        <_>
          <internalNodes>
            0 -1 29 -4.3374113738536835e-03</internalNodes>
          <leafValues>
            4.1444301605224609e-01 -1.4675164222717285e-01</leafValues></_>
        <_>
          <internalNodes>
            0 -1 313 2.8955247253179550e-02</internalNodes>
          <leafValues>
            -1.7375034093856812e-01 3.1005170941352844e-01</leafValues></_>
        <_>
          <internalNodes>
            0 -1 310 6.4770027995109558e-02</internalNodes>
          <leafValues>
            -1.3644686341285706e-01 5.0504940748214722e-01</leafValues></_>
        <_>
          <internalNodes>
            0 -1 429 1.3436796143651009e-04</internalNodes>
          <leafValues>
            1.7576855421066284e-01 -3.2096245884895325e-01</leafValues></_>
        <_>
          <internalNodes>
            0 -1 69 -6.5548354759812355e-03</internalNodes>
          <leafValues>
            1.9765293598175049e-01 -2.2153398394584656e-01</leafValues></_>
        <_>
          <internalNodes>
            0 -1 382 -6.6715322434902191e-02</internalNodes>
          <leafValues>
            2.9094392061233521e-01 -1.8764495849609375e-01</leafValues></_>
        <_>
          <internalNodes>
            0 -1 194 -2.1076589473523200e-04</internalNodes>
          <leafValues>
            -3.8876125216484070e-01 1.1420181393623352e-01</leafValues></_>
        <_>
          <internalNodes>
            0 -1 27 2.6130814105272293e-02</internalNodes>
          <leafValues>
            -8.5552990436553955e-02 4.6209418773651123e-01</leafValues></_>
        <_>
          <internalNodes>
            0 -1 271 1.2437551049515605e-03</internalNodes>
          <leafValues>
            9.8679780960083008e-02 -5.0961333513259888e-01</leafValues></_>
        <_>
          <internalNodes>
            0 -1 6 6.6004119813442230e-02</internalNodes>
          <leafValues>
            -1.1237054318189621e-01 4.4559249281883240e-01</leafValues></_>
        <_>
          <internalNodes>
            0 -1 8 1.8937321379780769e-02</internalNodes>
          <leafValues>
            2.2062547504901886e-01 -2.1525557339191437e-01</leafValues></_>
        <_>
          <internalNodes>
            0 -1 327 1.1765167117118835e-02</internalNodes>
          <leafValues>
            -1.4650987088680267e-01 2.9238504171371460e-01</leafValues></_>
        <_>
          <internalNodes>
            0 -1 215 3.1533080618828535e-04</internalNodes>
          <leafValues>
            -1.5013207495212555e-01 2.8289774060249329e-01</leafValues></_>
        <_>
          <internalNodes>
            0 -1 42 1.1814160272479057e-02</internalNodes>
          <leafValues>
            6.7176520824432373e-02 -6.5569961071014404e-01</leafValues></_>
        <_>
          <internalNodes>
            0 -1 115 2.3980806581676006e-03</internalNodes>
          <leafValues>
            -1.1289412528276443e-01 3.8223332166671753e-01</leafValues></_>
        <_>
          <internalNodes>
            0 -1 110 -6.2191915512084961e-01</internalNodes>
          <leafValues>
            6.2899297475814819e-01 -6.6715151071548462e-02</leafValues></_>
        <_>
          <internalNodes>
            0 -1 120 2.0759404287673533e-04</internalNodes>
          <leafValues>
            -1.1776825785636902e-01 3.5536351799964905e-01</leafValues></_>
        <_>
          <internalNodes>
            0 -1 405 -3.3699574414640665e-03</internalNodes>
          <leafValues>
            -7.6533418893814087e-01 6.6494211554527283e-02</leafValues></_>
        <_>
          <internalNodes>
            0 -1 190 -4.7141890972852707e-03</internalNodes>
          <leafValues>
            4.3635323643684387e-01 -1.0390242189168930e-01</leafValues></_>
        <_>
          <internalNodes>
            0 -1 233 -8.3945449441671371e-03</internalNodes>
          <leafValues>
            -6.7120951414108276e-01 7.1155026555061340e-02</leafValues></_>
        <_>
          <internalNodes>
            0 -1 188 -6.2131864251568913e-04</internalNodes>
          <leafValues>
            2.5829577445983887e-01 -1.6224822402000427e-01</leafValues></_>
        <_>
          <internalNodes>
            0 -1 161 3.9044450968503952e-02</internalNodes>
          <leafValues>
            -6.0498110949993134e-02 7.3561459779739380e-01</leafValues></_>
        <_>
          <internalNodes>
            0 -1 96 -5.8344611898064613e-03</internalNodes>
          <leafValues>
            4.4343578815460205e-01 -8.0891184508800507e-02</leafValues></_>
        <_>
          <internalNodes>
            0 -1 43 -5.4370434954762459e-03</internalNodes>
          <leafValues>
            2.7231973409652710e-01 -1.6448177397251129e-01</leafValues></_>
        <_>
          <internalNodes>
            0 -1 182 6.6213803365826607e-03</internalNodes>
          <leafValues>
            -1.2186295539140701e-01 3.8427385687828064e-01</leafValues></_>
        <_>
          <internalNodes>
            0 -1 77 7.6869525946676731e-04</internalNodes>
          <leafValues>
            1.1115675419569016e-01 -4.1287657618522644e-01</leafValues></_>
        <_>
          <internalNodes>
            0 -1 74 -8.5232441779226065e-04</internalNodes>
          <leafValues>
            -4.2941257357597351e-01 9.2499718070030212e-02</leafValues></_>
        <_>
          <internalNodes>
            0 -1 149 -8.6123486980795860e-03</internalNodes>
          <leafValues>
            4.6427866816520691e-01 -1.0410787165164948e-01</leafValues></_>
        <_>
          <internalNodes>
            0 -1 391 -3.5198302939534187e-03</internalNodes>
          <leafValues>
            -7.5680482387542725e-01 5.6820183992385864e-02</leafValues></_>
        <_>
          <internalNodes>
            0 -1 330 -1.7014286713674664e-03</internalNodes>
          <leafValues>
            2.5995662808418274e-01 -1.8585026264190674e-01</leafValues></_>
        <_>
          <internalNodes>
            0 -1 2 9.9828786915168166e-05</internalNodes>
          <leafValues>
            1.6154241561889648e-01 -2.7080398797988892e-01</leafValues></_></weakClassifiers></_>
    <!-- stage 18 -->
    <_>
      <maxWeakCount>28</maxWeakCount>
      <stageThreshold>-6.2596595287322998e-01</stageThreshold>
      <weakClassifiers>
        <_>
          <internalNodes>
            0 -1 7 -1.0106560587882996e-01</internalNodes>
          <leafValues>
            6.5591394901275635e-01 1.0606060922145844e-01</leafValues></_>
        <_>
          <internalNodes>
            0 -1 90 -3.9020469557726756e-05</internalNodes>
          <leafValues>
            -2.8739199042320251e-01 2.1731241047382355e-01</leafValues></_>
        <_>
          <internalNodes>
            0 -1 56 -4.9125086516141891e-03</internalNodes>
          <leafValues>
            1.4558190107345581e-01 -3.4826064109802246e-01</leafValues></_>
        <_>
          <internalNodes>
            0 -1 406 3.9307475090026855e-03</internalNodes>
          <leafValues>
            6.6774651408195496e-02 -7.6523083448410034e-01</leafValues></_>
        <_>
          <internalNodes>
            0 -1 458 -8.0196291673928499e-04</internalNodes>
          <leafValues>
            -8.5804384946823120e-01 4.5568536967039108e-02</leafValues></_>
        <_>
          <internalNodes>
            0 -1 296 1.6832578927278519e-02</internalNodes>
          <leafValues>
            -1.0113500803709030e-01 5.1704257726669312e-01</leafValues></_>
        <_>
          <internalNodes>
            0 -1 336 -2.3028386756777763e-02</internalNodes>
          <leafValues>
            2.9407823085784912e-01 -1.7264512181282043e-01</leafValues></_>
        <_>
          <internalNodes>
            0 -1 144 -1.1882649734616280e-02</internalNodes>
          <leafValues>
            2.6448303461074829e-01 -1.8410487473011017e-01</leafValues></_>
        <_>
          <internalNodes>
            0 -1 36 2.9136687517166138e-02</internalNodes>
          <leafValues>
            -8.3227328956127167e-02 6.4185929298400879e-01</leafValues></_>
        <_>
          <internalNodes>
            0 -1 319 -1.8848380446434021e-01</internalNodes>
          <leafValues>
            3.4630835056304932e-01 -1.2990850210189819e-01</leafValues></_>
        <_>
          <internalNodes>
            0 -1 265 8.0586560070514679e-03</internalNodes>
          <leafValues>
            -1.1457528918981552e-01 4.5048096776008606e-01</leafValues></_>
        <_>
          <internalNodes>
            0 -1 338 -5.2828702609986067e-04</internalNodes>
          <leafValues>
            5.3845351934432983e-01 -8.2743279635906219e-02</leafValues></_>
        <_>
          <internalNodes>
            0 -1 129 -5.1084691222058609e-05</internalNodes>
          <leafValues>
            -2.8887346386909485e-01 1.7083044350147247e-01</leafValues></_>
        <_>
          <internalNodes>
            0 -1 355 -1.9907448440790176e-02</internalNodes>
          <leafValues>
            2.3201222717761993e-01 -1.8543067574501038e-01</leafValues></_>
        <_>
          <internalNodes>
            0 -1 434 3.7608747370541096e-03</internalNodes>
          <leafValues>
            -1.4003457129001617e-01 3.7703359127044678e-01</leafValues></_>
        <_>
          <internalNodes>
            0 -1 20 -6.2704915180802345e-03</internalNodes>
          <leafValues>
            -5.8588039875030518e-01 8.1366084516048431e-02</leafValues></_>
        <_>
          <internalNodes>
            0 -1 456 5.3489377023652196e-04</internalNodes>
          <leafValues>
            8.1267349421977997e-02 -4.8886579275131226e-01</leafValues></_>
        <_>
          <internalNodes>
            0 -1 425 1.3942778110504150e-02</internalNodes>
          <leafValues>
            -5.7625051587820053e-02 8.1270766258239746e-01</leafValues></_>
        <_>
          <internalNodes>
            0 -1 61 -1.1637832969427109e-02</internalNodes>
          <leafValues>
            1.9720064103603363e-01 -2.2425878047943115e-01</leafValues></_>
        <_>
          <internalNodes>
            0 -1 122 -3.3683644142001867e-03</internalNodes>
          <leafValues>
            3.0038025975227356e-01 -1.3067056238651276e-01</leafValues></_>
        <_>
          <internalNodes>
            0 -1 240 -4.1464855894446373e-03</internalNodes>
          <leafValues>
            3.7018296122550964e-01 -1.1026725918054581e-01</leafValues></_>
        <_>
          <internalNodes>
            0 -1 157 4.3884722981601954e-04</internalNodes>
          <leafValues>
            1.7130476236343384e-01 -2.5560167431831360e-01</leafValues></_>
        <_>
          <internalNodes>
            0 -1 50 2.5863120332360268e-02</internalNodes>
          <leafValues>
            -8.9657336473464966e-02 5.1771014928817749e-01</leafValues></_>
        <_>
          <internalNodes>
            0 -1 231 -3.5528074949979782e-03</internalNodes>
          <leafValues>
            3.2289823889732361e-01 -1.1903390288352966e-01</leafValues></_>
        <_>
          <internalNodes>
            0 -1 448 -7.1829697117209435e-03</internalNodes>
          <leafValues>
            6.5169888734817505e-01 -6.1544671654701233e-02</leafValues></_>
        <_>
          <internalNodes>
            0 -1 211 1.9434505375102162e-03</internalNodes>
          <leafValues>
            9.6832841634750366e-02 -4.5256188511848450e-01</leafValues></_>
        <_>
          <internalNodes>
            0 -1 13 1.3160634040832520e-01</internalNodes>
          <leafValues>
            -8.0106854438781738e-02 5.4232227802276611e-01</leafValues></_>
        <_>
          <internalNodes>
            0 -1 339 3.3455135417170823e-04</internalNodes>
          <leafValues>
            1.0258302092552185e-01 -4.4842255115509033e-01</leafValues></_></weakClassifiers></_>
    <!-- stage 19 -->
    <_>
      <maxWeakCount>36</maxWeakCount>
      <stageThreshold>-7.0793414115905762e-01</stageThreshold>
      <weakClassifiers>
        <_>
          <internalNodes>
            0 -1 247 6.4950650557875633e-03</internalNodes>
          <leafValues>
            -1.3452914543449879e-02 5.0442475080490112e-01</leafValues></_>
        <_>
          <internalNodes>
            0 -1 23 -3.4308310598134995e-02</internalNodes>
          <leafValues>
            4.3971854448318481e-01 -1.1101976037025452e-01</leafValues></_>
        <_>
          <internalNodes>
            0 -1 140 -2.8072446584701538e-03</internalNodes>
          <leafValues>
            1.4418104290962219e-01 -3.7006643414497375e-01</leafValues></_>
        <_>
          <internalNodes>
            0 -1 432 -1.7728608101606369e-02</internalNodes>
          <leafValues>
            3.6422935128211975e-01 -1.3154503703117371e-01</leafValues></_>
        <_>
          <internalNodes>
            0 -1 204 1.4244826510548592e-02</internalNodes>
          <leafValues>
            -9.9634140729904175e-02 5.5450940132141113e-01</leafValues></_>
        <_>
          <internalNodes>
            0 -1 341 -4.3329421430826187e-02</internalNodes>
          <leafValues>
            3.5709947347640991e-01 -1.3323615491390228e-01</leafValues></_>
        <_>
          <internalNodes>
            0 -1 368 -2.2407493088394403e-03</internalNodes>
          <leafValues>
            4.3197563290596008e-01 -8.5929989814758301e-02</leafValues></_>
        <_>
          <internalNodes>
            0 -1 252 2.5301142595708370e-03</internalNodes>
          <leafValues>
            6.8496711552143097e-02 -7.7594918012619019e-01</leafValues></_>
        <_>
          <internalNodes>
            0 -1 446 -9.3767195940017700e-02</internalNodes>
          <leafValues>
            -8.5401761531829834e-01 4.2683359235525131e-02</leafValues></_>
        <_>
          <internalNodes>
            0 -1 94 -1.3952459394931793e-01</internalNodes>
          <leafValues>
            5.0327467918395996e-01 -9.4021730124950409e-02</leafValues></_>
        <_>
          <internalNodes>
            0 -1 257 1.7180431634187698e-02</internalNodes>
          <leafValues>
            -1.3411119580268860e-01 3.4618648886680603e-01</leafValues></_>
        <_>
          <internalNodes>
            0 -1 388 -2.7639806270599365e-02</internalNodes>
          <leafValues>
            3.5022678971290588e-01 -1.1503471434116364e-01</leafValues></_>
        <_>
          <internalNodes>
            0 -1 275 -1.4685754431411624e-03</internalNodes>
          <leafValues>
            4.4021826982498169e-01 -9.9855408072471619e-02</leafValues></_>
        <_>
          <internalNodes>
            0 -1 428 4.2766645492520183e-05</internalNodes>
          <leafValues>
            1.6095618903636932e-01 -2.4055403470993042e-01</leafValues></_>
        <_>
          <internalNodes>
            0 -1 232 7.1807671338319778e-03</internalNodes>
          <leafValues>
            -8.2023732364177704e-02 4.8167878389358521e-01</leafValues></_>
        <_>
          <internalNodes>
            0 -1 422 1.8100710585713387e-03</internalNodes>
          <leafValues>
            -3.1103983521461487e-01 1.3497482240200043e-01</leafValues></_>
        <_>
          <internalNodes>
            0 -1 286 -9.5356374979019165e-02</internalNodes>
          <leafValues>
            3.3092421293258667e-01 -1.3044205307960510e-01</leafValues></_>
        <_>
          <internalNodes>
            0 -1 354 3.5498462617397308e-02</internalNodes>
          <leafValues>
            -3.8536805659532547e-02 8.5210382938385010e-01</leafValues></_>
        <_>
          <internalNodes>
            0 -1 361 -3.8684550672769547e-03</internalNodes>
          <leafValues>
            1.9566236436367035e-01 -2.0699582993984222e-01</leafValues></_>
        <_>
          <internalNodes>
            0 -1 270 -5.5420636199414730e-03</internalNodes>
          <leafValues>
            4.7248694300651550e-01 -9.6965707838535309e-02</leafValues></_>
        <_>
          <internalNodes>
            0 -1 76 1.3021406484767795e-03</internalNodes>
          <leafValues>
            7.9690769314765930e-02 -5.3171497583389282e-01</leafValues></_>
        <_>
          <internalNodes>
            0 -1 237 -1.4422825537621975e-02</internalNodes>
          <leafValues>
            -9.8459398746490479e-01 3.6231901496648788e-02</leafValues></_>
        <_>
          <internalNodes>
            0 -1 453 -5.7517627283232287e-05</internalNodes>
          <leafValues>
            -2.4131968617439270e-01 1.7691098153591156e-01</leafValues></_>
        <_>
          <internalNodes>
            0 -1 346 -3.5361140035092831e-03</internalNodes>
          <leafValues>
            3.2307952642440796e-01 -1.2444898486137390e-01</leafValues></_>
        <_>
          <internalNodes>
            0 -1 106 -9.6873380243778229e-03</internalNodes>
          <leafValues>
            4.1484573483467102e-01 -9.0624853968620300e-02</leafValues></_>
        <_>
          <internalNodes>
            0 -1 239 -2.3328287526965141e-02</internalNodes>
          <leafValues>
            4.0022945404052734e-01 -9.8665498197078705e-02</leafValues></_>
        <_>
          <internalNodes>
            0 -1 133 -2.2113669663667679e-02</internalNodes>
          <leafValues>
            -8.0133301019668579e-01 5.6047093123197556e-02</leafValues></_>
        <_>
          <internalNodes>
            0 -1 435 2.7081225998699665e-03</internalNodes>
          <leafValues>
            -7.6208144426345825e-02 5.1765030622482300e-01</leafValues></_>
        <_>
          <internalNodes>
            0 -1 200 -1.8505271524190903e-02</internalNodes>
          <leafValues>
            4.6572327613830566e-01 -7.6972261071205139e-02</leafValues></_>
        <_>
          <internalNodes>
            0 -1 165 -9.8461791872978210e-02</internalNodes>
          <leafValues>
            -5.1471215486526489e-01 7.4705488979816437e-02</leafValues></_>
        <_>
          <internalNodes>
            0 -1 93 -1.5333825722336769e-03</internalNodes>
          <leafValues>
            -5.5642241239547729e-01 6.4725317060947418e-02</leafValues></_>
        <_>
          <internalNodes>
            0 -1 41 -1.3846382498741150e-01</internalNodes>
          <leafValues>
            -4.4632387161254883e-01 7.9944327473640442e-02</leafValues></_>
        <_>
          <internalNodes>
            0 -1 62 -2.3774486035108566e-02</internalNodes>
          <leafValues>
            2.7796503901481628e-01 -1.8681547045707703e-01</leafValues></_>
        <_>
          <internalNodes>
            0 -1 378 -1.9345369189977646e-02</internalNodes>
          <leafValues>
            5.0022423267364502e-01 -9.6427209675312042e-02</leafValues></_>
        <_>
          <internalNodes>
            0 -1 22 -1.8562924116849899e-02</internalNodes>
          <leafValues>
            1.8140196800231934e-01 -2.3825263977050781e-01</leafValues></_>
        <_>
          <internalNodes>
            0 -1 35 -5.0256244838237762e-02</internalNodes>
          <leafValues>
